SVM-light Version V6.20
3 # kernel type
3 # kernel parameter -d 
1 # kernel parameter -g 
1 # kernel parameter -s 
1 # kernel parameter -r 
empty# kernel parameter -u 
14 # highest feature index 
2 # number of training documents 
12859 # number of support vectors plus 1 
0 # threshold b, each following line is a SV (starting with alpha*y)
0.040000000000000000832667268468867 1:0 2:0.0099473726 3:0.0093487268 4:0.0075787958 5:0.0083673708 6:0.0085589513 7:0.00735689 8:0.0071734674 9:0.0079230992 10:0.0070438534 11:0.0067883055 12:0.0057760868 13:0.0020346462 # places
0.010000000000000000208166817117217 1:0 2:0.013393464 3:0.0094174109 4:0.0070772255 5:0.014000779 6:0.01113514 7:0.0089502335 8:0.012852289 9:0.01078518 10:0.0090407729 11:0.006737784 12:0.0057888357 13:0.0022734525 # regions
0.010000000000000000208166817117217 1:0 2:0.012958575 3:0.0091623804 4:0.0069460613 5:0.011502135 6:0.0092631392 7:0.0075206445 8:0.010989831 9:0.0092993965 10:0.0078527499 11:0.0067916242 12:0.0058634295 13:0.0024667801 # sections
-0.020000000000000000416333634234434 1:0 2:0.011680004 3:0.0087944688 4:0.0066300333 5:0.010457959 6:0.0088050514 7:0.007121875 8:0.0081501594 9:0.0072745075 10:0.006153902 11:0.0067179981 12:0.0057595726 13:0.0020161204 # areas
-0.040000000000000000832667268468867 1:0.0063759536 2:0.010414517 3:0.0078484323 4:0.0061729755 5:0.0091152284 6:0.0076445909 7:0.006213028 8:0.0076710954 9:0.0064487448 10:0.0054688645 11:0.0066841412 12:0.0057164994 13:0.0019139869 # parts
0.040000000000000000832667268468867 1:0 2:0.0099473726 3:0.0093487268 4:0.0075787958 5:0.0083673708 6:0.0085589513 7:0.00735689 8:0.0071734674 9:0.0079230992 10:0.0070438534 11:0.0067883055 12:0.0057760868 13:0.0020346462 # places
0.010000000000000000208166817117217 1:0 2:0.013393464 3:0.0094174109 4:0.0070772255 5:0.014000779 6:0.01113514 7:0.0089502335 8:0.012852289 9:0.01078518 10:0.0090407729 11:0.006737784 12:0.0057888357 13:0.0022734525 # regions
0.010000000000000000208166817117217 1:0 2:0.012958575 3:0.0091623804 4:0.0069460613 5:0.011502135 6:0.0092631392 7:0.0075206445 8:0.010989831 9:0.0092993965 10:0.0078527499 11:0.0067916242 12:0.0058634295 13:0.0024667801 # sections
-0.020000000000000000416333634234434 1:0 2:0.011680004 3:0.0087944688 4:0.0066300333 5:0.010457959 6:0.0088050514 7:0.007121875 8:0.0081501594 9:0.0072745075 10:0.006153902 11:0.0067179981 12:0.0057595726 13:0.0020161204 # areas
-0.040000000000000000832667268468867 1:0.0063759536 2:0.010414517 3:0.0078484323 4:0.0061729755 5:0.0091152284 6:0.0076445909 7:0.006213028 8:0.0076710954 9:0.0064487448 10:0.0054688645 11:0.0066841412 12:0.0057164994 13:0.0019139869 # parts
0.080000000000000001665334536937735 1:0 2:0.015145459 3:0.01001841 4:0.0097788991 5:0.015005871 6:0.011510585 7:0.011020462 8:0.018859347 9:0.015320649 10:0.014249149 11:0.0018821994 12:0.0019845923 13:0.0026931793 # is composed
0.080000000000000001665334536937735 1:0 2:0.015145459 3:0.01354868 4:0.012258011 5:0.015005871 6:0.014060483 7:0.012962459 8:0.018859347 9:0.017344473 10:0.015862994 11:0.0019748951 12:0.0020518184 13:0.0026816267 # is formed
0.080000000000000001665334536937735 1:0.0026566475 2:0.0052594393 3:0.0083860448 4:0.0087103946 5:0.0091152266 6:0.010591814 7:0.010388073 8:0.014468535 9:0.014591432 10:0.013723617 11:0.0019894429 12:0.0020393401 13:0.0014165191 # have
0.080000000000000001665334536937735 1:0 2:0.015015747 3:0.010158763 4:0.011165704 5:0.014435851 6:0.011241188 7:0.011815326 8:0.018434463 9:0.015106833 10:0.0149097 11:0.0020407466 12:0.0020355789 13:0.003208372 # has most
0.080000000000000001665334536937735 1:0.0018596532 2:0.012121018 3:0.011489009 4:0.010765009 5:0.014327114 6:0.013473555 7:0.012501051 8:0.018353412 9:0.016878635 10:0.015479553 11:0.0020955161 12:0.0020416328 13:0.0020706952 # includes
0.080000000000000001665334536937735 1:0 2:0.013476948 3:0.015641313 4:0.013876054 5:0.013974873 6:0.015571984 7:0.014229942 8:0.018090855 9:0.018544132 10:0.016916307 11:0.0021742694 12:0.002064819 13:0.0024066542 # is made of
0.080000000000000001665334536937735 1:0.014213064 2:0.0068645272 3:0.0095224846 4:0.0093852254 5:0.0093586026 6:0.010781607 7:0.010420601 8:0.014649945 9:0.014742069 10:0.013750649 11:0.0019709738 12:0.0020336844 13:0.0013800458 # has
0.080000000000000001665334536937735 1:0 2:0.010014109 3:0.011710664 4:0.01092568 5:0.013025226 6:0.013633657 7:0.012626913 8:0.017382998 9:0.017005704 10:0.015584146 11:0.0021003177 12:0.0021068836 13:0.0024123043 # belong
0.080000000000000001665334536937735 1:0 2:0.013151882 3:0.0093274023 4:0.0092389025 5:0.014964101 6:0.011912237 7:0.011305586 8:0.018828213 9:0.015639435 10:0.014486093 11:0.0019236461 12:0.0020000627 13:0.0022396354 # composed
0.080000000000000001665334536937735 1:0 2:0.011337065 3:0.012052956 4:0.011173799 5:0.013842699 6:0.013880892 7:0.012821275 8:0.017992333 9:0.017201932 10:0.015745666 11:0.0019617553 12:0.0021115046 13:0.0024240299 # exists
0.080000000000000001665334536937735 1:0.0027894797 2:0.0065492336 3:0.0090723736 4:0.0090338057 5:0.011502134 6:0.012195716 7:0.011512591 8:0.016247706 9:0.01586443 10:0.014658119 11:0.0019663279 12:0.0020647887 13:0.0014815475 # had
0.080000000000000001665334536937735 1:0 2:0.014663225 3:0.013050541 4:0.011896923 5:0.015897982 6:0.014601443 7:0.013387728 8:0.019524317 9:0.017773826 10:0.016216405 11:0.0021113299 12:0.0021481898 13:0.0036080917 # endures
0.080000000000000001665334536937735 1:0.019260693 2:0.0076211947 3:0.0071790935 4:0.0083054258 5:0.010457957 6:0.0096679451 7:0.01002989 8:0.015469389 9:0.013858167 10:0.013425957 11:0.0019207024 12:0.0019654746 13:0.0015240196 # made
0.080000000000000001665334536937735 1:0 2:0.013151884 3:0.013758262 4:0.01246905 5:0.013048601 6:0.013662813 7:0.012696143 8:0.017400423 9:0.017028846 10:0.01564168 11:0.0019967447 12:0.0020178461 13:0.002764615 # makes up
0.080000000000000001665334536937735 1:0 2:0.012281613 3:0.0083109178 4:0.0087975878 5:0.012746388 6:0.0099064969 7:0.0099602789 8:0.017175158 9:0.014047503 10:0.013368109 11:0.0019666946 12:0.001966431 13:0.0026771601 # has a lot
-0.10000000000000000555111512312578 1:0 2:0.014201404 3:0.015890066 4:0.014056369 5:0.014422525 6:0.015751656 7:0.014371191 8:0.018424528 9:0.018686734 10:0.017033685 11:0.0021850539 12:0.002142119 13:0.002450326 # is made up of
-0.10000000000000000555111512312578 1:0 2:0.013596043 3:0.0091954935 4:0.0091834096 5:0.014048465 6:0.010916197 7:0.01055399 8:0.018145707 9:0.01484889 10:0.013861497 11:0.0019401902 12:0.0019552631 13:0.0023991009 # is made up
-0.10000000000000000555111512312578 1:0 2:0.015818777 3:0.013711085 4:0.012375734 5:0.016612014 6:0.015078551 7:0.013762803 8:0.020056546 9:0.0181525 10:0.0165281 11:0.0020060707 12:0.0021115046 13:0.0027991587 # comprises
-0.14999999999999999444888487687422 1:0 2:0.012046832 3:0.008726404 4:0.0093926378 5:0.013091183 6:0.010577377 7:0.010717887 8:0.017432163 9:0.014579973 10:0.013997703 11:0.001916124 12:0.0019569451 13:0.0020297014 # is made
-0.14999999999999999444888487687422 1:0.002523815 2:0.012117941 3:0.01148982 4:0.010765596 5:0.014325214 6:0.013474141 7:0.012501512 8:0.018351994 9:0.0168791 10:0.015479936 11:0.0020384546 12:0.0020881442 13:0.0020965498 # contains
-0.18000000000000002109423746787797 1:0.025105318 2:0.0048969113 3:0.0077304356 4:0.0083595859 5:0.0083431965 6:0.0098579936 7:0.0099086538 8:0.013893072 9:0.014009006 10:0.013325208 11:0.0018797969 12:0.0019726735 13:0.00094505114 # is
-0.20000000000000001110223024625157 1:0 2:0.013596043 3:0.0091954935 4:0.0091834096 5:0.014048465 6:0.010916197 7:0.01055399 8:0.018145707 9:0.01484889 10:0.013861497 11:0.0019401902 12:0.0019552631 13:0.0023991009 # is made up
-0.21999999999999997335464740899624 1:0 2:0.012046832 3:0.008726404 4:0.0093926378 5:0.013091183 6:0.010577377 7:0.010717887 8:0.017432163 9:0.014579973 10:0.013997703 11:0.001916124 12:0.0019569451 13:0.0020297014 # is made
0.080000000000000001665334536937735 1:0 2:0.015145459 3:0.01001841 4:0.0097788991 5:0.015005871 6:0.011510585 7:0.011020462 8:0.018859347 9:0.015320649 10:0.014249149 11:0.0018821994 12:0.0019845923 13:0.0026931793 # is composed
0.080000000000000001665334536937735 1:0 2:0.015145459 3:0.01354868 4:0.012258011 5:0.015005871 6:0.014060483 7:0.012962459 8:0.018859347 9:0.017344473 10:0.015862994 11:0.0019748951 12:0.0020518184 13:0.0026816267 # is formed
0.080000000000000001665334536937735 1:0.0026566475 2:0.0052594393 3:0.0083860448 4:0.0087103946 5:0.0091152266 6:0.010591814 7:0.010388073 8:0.014468535 9:0.014591432 10:0.013723617 11:0.0019894429 12:0.0020393401 13:0.0014165191 # have
0.080000000000000001665334536937735 1:0 2:0.015015747 3:0.010158763 4:0.011165704 5:0.014435851 6:0.011241188 7:0.011815326 8:0.018434463 9:0.015106833 10:0.0149097 11:0.0020407466 12:0.0020355789 13:0.003208372 # has most
0.080000000000000001665334536937735 1:0.0018596532 2:0.012121018 3:0.011489009 4:0.010765009 5:0.014327114 6:0.013473555 7:0.012501051 8:0.018353412 9:0.016878635 10:0.015479553 11:0.0020955161 12:0.0020416328 13:0.0020706952 # includes
0.080000000000000001665334536937735 1:0 2:0.013476948 3:0.015641313 4:0.013876054 5:0.013974873 6:0.015571984 7:0.014229942 8:0.018090855 9:0.018544132 10:0.016916307 11:0.0021742694 12:0.002064819 13:0.0024066542 # is made of
0.080000000000000001665334536937735 1:0.014213064 2:0.0068645272 3:0.0095224846 4:0.0093852254 5:0.0093586026 6:0.010781607 7:0.010420601 8:0.014649945 9:0.014742069 10:0.013750649 11:0.0019709738 12:0.0020336844 13:0.0013800458 # has
0.080000000000000001665334536937735 1:0 2:0.010014109 3:0.011710664 4:0.01092568 5:0.013025226 6:0.013633657 7:0.012626913 8:0.017382998 9:0.017005704 10:0.015584146 11:0.0021003177 12:0.0021068836 13:0.0024123043 # belong
0.080000000000000001665334536937735 1:0 2:0.013151882 3:0.0093274023 4:0.0092389025 5:0.014964101 6:0.011912237 7:0.011305586 8:0.018828213 9:0.015639435 10:0.014486093 11:0.0019236461 12:0.0020000627 13:0.0022396354 # composed
0.080000000000000001665334536937735 1:0 2:0.011337065 3:0.012052956 4:0.011173799 5:0.013842699 6:0.013880892 7:0.012821275 8:0.017992333 9:0.017201932 10:0.015745666 11:0.0019617553 12:0.0021115046 13:0.0024240299 # exists
0.080000000000000001665334536937735 1:0.0027894797 2:0.0065492336 3:0.0090723736 4:0.0090338057 5:0.011502134 6:0.012195716 7:0.011512591 8:0.016247706 9:0.01586443 10:0.014658119 11:0.0019663279 12:0.0020647887 13:0.0014815475 # had
0.080000000000000001665334536937735 1:0 2:0.014663225 3:0.013050541 4:0.011896923 5:0.015897982 6:0.014601443 7:0.013387728 8:0.019524317 9:0.017773826 10:0.016216405 11:0.0021113299 12:0.0021481898 13:0.0036080917 # endures
0.080000000000000001665334536937735 1:0.019260693 2:0.0076211947 3:0.0071790935 4:0.0083054258 5:0.010457957 6:0.0096679451 7:0.01002989 8:0.015469389 9:0.013858167 10:0.013425957 11:0.0019207024 12:0.0019654746 13:0.0015240196 # made
0.080000000000000001665334536937735 1:0 2:0.013151884 3:0.013758262 4:0.01246905 5:0.013048601 6:0.013662813 7:0.012696143 8:0.017400423 9:0.017028846 10:0.01564168 11:0.0019967447 12:0.0020178461 13:0.002764615 # makes up
0.080000000000000001665334536937735 1:0 2:0.012281613 3:0.0083109178 4:0.0087975878 5:0.012746388 6:0.0099064969 7:0.0099602789 8:0.017175158 9:0.014047503 10:0.013368109 11:0.0019666946 12:0.001966431 13:0.0026771601 # has a lot
-0.10000000000000000555111512312578 1:0 2:0.014201404 3:0.015890066 4:0.014056369 5:0.014422525 6:0.015751656 7:0.014371191 8:0.018424528 9:0.018686734 10:0.017033685 11:0.0021850539 12:0.002142119 13:0.002450326 # is made up of
-0.10000000000000000555111512312578 1:0 2:0.013596043 3:0.0091954935 4:0.0091834096 5:0.014048465 6:0.010916197 7:0.01055399 8:0.018145707 9:0.01484889 10:0.013861497 11:0.0019401902 12:0.0019552631 13:0.0023991009 # is made up
-0.10000000000000000555111512312578 1:0 2:0.015818777 3:0.013711085 4:0.012375734 5:0.016612014 6:0.015078551 7:0.013762803 8:0.020056546 9:0.0181525 10:0.0165281 11:0.0020060707 12:0.0021115046 13:0.0027991587 # comprises
-0.14999999999999999444888487687422 1:0 2:0.012046832 3:0.008726404 4:0.0093926378 5:0.013091183 6:0.010577377 7:0.010717887 8:0.017432163 9:0.014579973 10:0.013997703 11:0.001916124 12:0.0019569451 13:0.0020297014 # is made
-0.14999999999999999444888487687422 1:0.002523815 2:0.012117941 3:0.01148982 4:0.010765596 5:0.014325214 6:0.013474141 7:0.012501512 8:0.018351994 9:0.0168791 10:0.015479936 11:0.0020384546 12:0.0020881442 13:0.0020965498 # contains
-0.18000000000000002109423746787797 1:0.025105318 2:0.0048969113 3:0.0077304356 4:0.0083595859 5:0.0083431965 6:0.0098579936 7:0.0099086538 8:0.013893072 9:0.014009006 10:0.013325208 11:0.0018797969 12:0.0019726735 13:0.00094505114 # is
-0.20000000000000001110223024625157 1:0 2:0.013596043 3:0.0091954935 4:0.0091834096 5:0.014048465 6:0.010916197 7:0.01055399 8:0.018145707 9:0.01484889 10:0.013861497 11:0.0019401902 12:0.0019552631 13:0.0023991009 # is made up
-0.21999999999999997335464740899624 1:0 2:0.012046832 3:0.008726404 4:0.0093926378 5:0.013091183 6:0.010577377 7:0.010717887 8:0.017432163 9:0.014579973 10:0.013997703 11:0.001916124 12:0.0019569451 13:0.0020297014 # is made
0.080000000000000001665334536937735 1:0 2:0.01514546 3:0.010449925 4:0.0085306838 5:0.014057714 6:0.011104622 7:0.0094785113 8:0.012885192 9:0.010753273 10:0.0094734589 11:0.0014618002 12:0.0011984895 13:0.0036080917 # evocative
0.080000000000000001665334536937735 1:0 2:0.013370874 3:0.010315134 4:0.0084935389 5:0.012961171 6:0.011007261 7:0.0094494121 8:0.012067842 9:0.010676 10:0.009449278 11:0.0015420744 12:0.0011264097 13:0.0031692025 # echoes
0.080000000000000001665334536937735 1:0 2:0.01514546 3:0.013208667 4:0.010446859 5:0.014057714 6:0.013097248 7:0.010979533 8:0.012885192 9:0.012334797 10:0.010720845 11:0.0015884427 12:0.0012108035 13:0.0037706171 # telltale
0.080000000000000001665334536937735 1:0 2:0.01756906 3:0.017959021 4:0.013865825 5:0.014512306 6:0.015738986 7:0.013037163 8:0.01322404 9:0.014431512 10:0.012430785 11:0.0018531828 12:0.0013506827 13:0.0042955461 # reminding of
0.080000000000000001665334536937735 1:0 2:0.013781632 3:0.012607348 4:0.010010977 5:0.013214984 6:0.012662917 7:0.010638089 8:0.012257031 9:0.011990074 10:0.010437096 11:0.0015872132 12:0.0012108043 13:0.0037706171 # nostalgic
0.080000000000000001665334536937735 1:0 2:0.039627012 3:0.028690472 4:0.021669224 5:0.026314069 6:0.022106547 7:0.018062109 8:0.022020925 9:0.019485367 10:0.016606636 11:0.011205061 12:0.0092776818 13:0.11056278 # similar to (remove of)
0.080000000000000001665334536937735 1:0 2:0.012346723 3:0.011026322 4:0.0088649327 5:0.012328333 6:0.011520951 7:0.0097403424 8:0.011596133 9:0.011083708 10:0.0096910475 11:0.0061843311 12:0.0050731599 13:0.05398972 # recolescent
0.080000000000000001665334536937735 1:0 2:0.017709015 3:0.01480674 4:0.011605261 5:0.015641773 6:0.01425153 7:0.011886961 8:0.01406593 9:0.013250936 10:0.011474939 11:0.0061843311 12:0.0050731599 13:0.05398972 # piec
0.080000000000000001665334536937735 1:0 2:0.01979652 3:0.014607303 4:0.011357898 5:0.015821917 6:0.013267518 7:0.011032865 8:0.014313704 9:0.012561409 10:0.010840457 11:0.0016783022 12:0.0011503675 13:0.0039406568 # like features
0.080000000000000001665334536937735 1:0 2:0.012346723 3:0.011026322 4:0.0088649327 5:0.012328333 6:0.011520951 7:0.0097403424 8:0.011596133 9:0.011083708 10:0.0096910475 11:0.0061843311 12:0.0050731599 13:0.05398972 # comparitive
0.080000000000000001665334536937735 1:0 2:0.018614432 3:0.019003106 4:0.01411314 5:0.016201243 6:0.017282546 7:0.013851493 8:0.014482953 9:0.015656617 10:0.013107514 11:0.006490035 12:0.0052152509 13:0.054324895 # similiar to
0.080000000000000001665334536937735 1:0.055410076 2:0.011313953 3:0.010938813 4:0.0088014994 5:0.0089870337 6:0.0097119631 7:0.008318224 8:0.0091055697 9:0.0096479366 10:0.0085092317 11:0.0015719478 12:0.0010595305 13:0.0019624566 # similar
0.080000000000000001665334536937735 1:0 2:0.0076211947 3:0.0071790935 4:0.0069238162 5:0.0075190435 6:0.0061266688 7:0.0063025593 8:0.0080113476 9:0.0068023331 10:0.0068341661 11:0.0013879829 12:0.00096790656 13:0.0015240196 # made
0.080000000000000001665334536937735 1:0 2:0.013306091 3:0.015564451 4:0.012130062 5:0.011003196 6:0.013347155 7:0.011156848 8:0.010608393 9:0.012533146 10:0.010868198 11:0.0017277411 12:0.0013081367 13:0.0037340343 # reminded of
0.080000000000000001665334536937735 1:0 2:0.015968516 3:0.012052957 4:0.0096091144 5:0.014566294 6:0.012262485 7:0.010323293 8:0.013264281 9:0.011672256 10:0.010175493 11:0.0014500421 12:0.0011604679 13:0.0036080917 # replicas
-0.10999999999999998667732370449812 1:0 2:0.010327028 3:0.012052957 4:0.0096091144 5:0.0087136403 6:0.010936874 7:0.0092811761 8:0.0089017851 9:0.010620133 10:0.0093094679 11:0.001533811 12:0.0010715786 13:0.0026642501 # familiar
-0.10999999999999998667732370449812 1:0 2:0.014544131 3:0.012052957 4:0.0096091144 5:0.013686144 6:0.012262484 7:0.010323292 8:0.012608228 9:0.011672255 10:0.010175493 11:0.0014669853 12:0.0011201446 13:0.0032083725 # suggestive
-0.10999999999999998667732370449812 1:0 2:0.012643275 3:0.015638666 4:0.011674344 5:0.0096238088 6:0.012679288 7:0.010232685 8:0.0095802136 9:0.012003066 10:0.010100195 11:0.0016468154 12:0.001176751 13:0.0021044924 # similar to
-0.10999999999999998667732370449812 1:0 2:0.0057517127 3:0.0094420798 4:0.0083054248 5:0.0069844527 6:0.0095367003 7:0.008641731 8:0.0076710954 9:0.0096003059 10:0.0088533666 11:0.0015612656 12:0.0010886806 13:0.0016254869 # like
-0.16000000000000000333066907387547 1:0 2:0.012988238 3:0.011376071 4:0.0091184564 5:0.010856181 6:0.010359291 7:0.0088271154 8:0.01049881 9:0.010161715 10:0.0089321332 11:0.0015798802 12:0.0011604679 13:0.0030158733 # memorable
-0.18000000000000002109423746787797 1:0 2:0.014848814 3:0.010315133 4:0.0084189763 5:0.013874412 6:0.011007261 7:0.0093910042 8:0.012748561 9:0.010675999 10:0.0094007384 11:0.0014371867 12:0.001064026 13:0.003314351 # reminders
-0.20000000000000001110223024625157 1:0 2:0.012346723 3:0.011026322 4:0.0088649327 5:0.012328333 6:0.011520951 7:0.0097403424 8:0.011596133 9:0.011083708 10:0.0096910475 11:0.0061843311 12:0.0050731599 13:0.05398972 # remindful
-0.21999999999999997335464740899624 1:0.055410076 2:0.011313953 3:0.010938813 4:0.0088014994 5:0.0089870337 6:0.0097119631 7:0.008318224 8:0.0091055697 9:0.0096479366 10:0.0085092317 11:0.0015719478 12:0.0010595305 13:0.0019624566 # similar
0.080000000000000001665334536937735 1:0 2:0.01514546 3:0.010449925 4:0.0085306838 5:0.014057714 6:0.011104622 7:0.0094785113 8:0.012885192 9:0.010753273 10:0.0094734589 11:0.0014618002 12:0.0011984895 13:0.0036080917 # evocative
0.080000000000000001665334536937735 1:0 2:0.013370874 3:0.010315134 4:0.0084935389 5:0.012961171 6:0.011007261 7:0.0094494121 8:0.012067842 9:0.010676 10:0.009449278 11:0.0015420744 12:0.0011264097 13:0.0031692025 # echoes
0.080000000000000001665334536937735 1:0 2:0.01514546 3:0.013208667 4:0.010446859 5:0.014057714 6:0.013097248 7:0.010979533 8:0.012885192 9:0.012334797 10:0.010720845 11:0.0015884427 12:0.0012108035 13:0.0037706171 # telltale
0.080000000000000001665334536937735 1:0 2:0.01756906 3:0.017959021 4:0.013865825 5:0.014512306 6:0.015738986 7:0.013037163 8:0.01322404 9:0.014431512 10:0.012430785 11:0.0018531828 12:0.0013506827 13:0.0042955461 # reminding of
0.080000000000000001665334536937735 1:0 2:0.013781632 3:0.012607348 4:0.010010977 5:0.013214984 6:0.012662917 7:0.010638089 8:0.012257031 9:0.011990074 10:0.010437096 11:0.0015872132 12:0.0012108043 13:0.0037706171 # nostalgic
0.080000000000000001665334536937735 1:0 2:0.039627012 3:0.028690472 4:0.021669224 5:0.026314069 6:0.022106547 7:0.018062109 8:0.022020925 9:0.019485367 10:0.016606636 11:0.011205061 12:0.0092776818 13:0.11056278 # similar to (remove of)
0.080000000000000001665334536937735 1:0 2:0.012346723 3:0.011026322 4:0.0088649327 5:0.012328333 6:0.011520951 7:0.0097403424 8:0.011596133 9:0.011083708 10:0.0096910475 11:0.0061843311 12:0.0050731599 13:0.05398972 # recolescent
0.080000000000000001665334536937735 1:0 2:0.017709015 3:0.01480674 4:0.011605261 5:0.015641773 6:0.01425153 7:0.011886961 8:0.01406593 9:0.013250936 10:0.011474939 11:0.0061843311 12:0.0050731599 13:0.05398972 # piec
0.080000000000000001665334536937735 1:0 2:0.01979652 3:0.014607303 4:0.011357898 5:0.015821917 6:0.013267518 7:0.011032865 8:0.014313704 9:0.012561409 10:0.010840457 11:0.0016783022 12:0.0011503675 13:0.0039406568 # like features
0.080000000000000001665334536937735 1:0 2:0.012346723 3:0.011026322 4:0.0088649327 5:0.012328333 6:0.011520951 7:0.0097403424 8:0.011596133 9:0.011083708 10:0.0096910475 11:0.0061843311 12:0.0050731599 13:0.05398972 # comparitive
0.080000000000000001665334536937735 1:0 2:0.018614432 3:0.019003106 4:0.01411314 5:0.016201243 6:0.017282546 7:0.013851493 8:0.014482953 9:0.015656617 10:0.013107514 11:0.006490035 12:0.0052152509 13:0.054324895 # similiar to
0.080000000000000001665334536937735 1:0.055410076 2:0.011313953 3:0.010938813 4:0.0088014994 5:0.0089870337 6:0.0097119631 7:0.008318224 8:0.0091055697 9:0.0096479366 10:0.0085092317 11:0.0015719478 12:0.0010595305 13:0.0019624566 # similar
0.080000000000000001665334536937735 1:0 2:0.0076211947 3:0.0071790935 4:0.0069238162 5:0.0075190435 6:0.0061266688 7:0.0063025593 8:0.0080113476 9:0.0068023331 10:0.0068341661 11:0.0013879829 12:0.00096790656 13:0.0015240196 # made
0.080000000000000001665334536937735 1:0 2:0.013306091 3:0.015564451 4:0.012130062 5:0.011003196 6:0.013347155 7:0.011156848 8:0.010608393 9:0.012533146 10:0.010868198 11:0.0017277411 12:0.0013081367 13:0.0037340343 # reminded of
0.080000000000000001665334536937735 1:0 2:0.015968516 3:0.012052957 4:0.0096091144 5:0.014566294 6:0.012262485 7:0.010323293 8:0.013264281 9:0.011672256 10:0.010175493 11:0.0014500421 12:0.0011604679 13:0.0036080917 # replicas
-0.10999999999999998667732370449812 1:0 2:0.010327028 3:0.012052957 4:0.0096091144 5:0.0087136403 6:0.010936874 7:0.0092811761 8:0.0089017851 9:0.010620133 10:0.0093094679 11:0.001533811 12:0.0010715786 13:0.0026642501 # familiar
-0.10999999999999998667732370449812 1:0 2:0.014544131 3:0.012052957 4:0.0096091144 5:0.013686144 6:0.012262484 7:0.010323292 8:0.012608228 9:0.011672255 10:0.010175493 11:0.0014669853 12:0.0011201446 13:0.0032083725 # suggestive
-0.10999999999999998667732370449812 1:0 2:0.012643275 3:0.015638666 4:0.011674344 5:0.0096238088 6:0.012679288 7:0.010232685 8:0.0095802136 9:0.012003066 10:0.010100195 11:0.0016468154 12:0.001176751 13:0.0021044924 # similar to
-0.10999999999999998667732370449812 1:0 2:0.0057517127 3:0.0094420798 4:0.0083054248 5:0.0069844527 6:0.0095367003 7:0.008641731 8:0.0076710954 9:0.0096003059 10:0.0088533666 11:0.0015612656 12:0.0010886806 13:0.0016254869 # like
-0.16000000000000000333066907387547 1:0 2:0.012988238 3:0.011376071 4:0.0091184564 5:0.010856181 6:0.010359291 7:0.0088271154 8:0.01049881 9:0.010161715 10:0.0089321332 11:0.0015798802 12:0.0011604679 13:0.0030158733 # memorable
-0.18000000000000002109423746787797 1:0 2:0.014848814 3:0.010315133 4:0.0084189763 5:0.013874412 6:0.011007261 7:0.0093910042 8:0.012748561 9:0.010675999 10:0.0094007384 11:0.0014371867 12:0.001064026 13:0.003314351 # reminders
-0.20000000000000001110223024625157 1:0 2:0.012346723 3:0.011026322 4:0.0088649327 5:0.012328333 6:0.011520951 7:0.0097403424 8:0.011596133 9:0.011083708 10:0.0096910475 11:0.0061843311 12:0.0050731599 13:0.05398972 # remindful
-0.21999999999999997335464740899624 1:0.055410076 2:0.011313953 3:0.010938813 4:0.0088014994 5:0.0089870337 6:0.0097119631 7:0.008318224 8:0.0091055697 9:0.0096479366 10:0.0085092317 11:0.0015719478 12:0.0010595305 13:0.0019624566 # similar
0.020000000000000000416333634234434 1:0 2:0.015689064 3:0.012875486 4:0.0093331123 5:0.013958195 6:0.01252703 7:0.0098480051 8:0.012302396 9:0.011472313 10:0.0094431117 11:0.016480118 12:0.013984125 13:0.05398972 # job.
0.020000000000000000416333634234434 1:0 2:0.0072863679 3:0.0057205604 4:0.0041466886 5:0.0074421531 6:0.006228046 7:0.0048961188 8:0.0078338329 9:0.0069069108 10:0.0056852298 11:0.01164311 12:0.0099238316 13:0.0017682222 # work
0.020000000000000000416333634234434 1:0 2:0.012191348 3:0.0085159224 4:0.0061729755 5:0.011796904 6:0.0093781371 7:0.0073725325 8:0.010691397 9:0.0089730741 10:0.0073859342 11:0.011797004 12:0.010104125 13:0.0029176967 # specialty
0.020000000000000000416333634234434 1:0 2:0.012697557 3:0.0093707982 4:0.0067926534 5:0.012109699 6:0.0099956105 7:0.0078579532 8:0.010924549 9:0.0094631547 10:0.0077893306 11:0.011740686 12:0.010051173 13:0.0025850569 # occupation
-0.029999999999999998889776975374843 1:0.0077574104 2:0.010127245 3:0.0074400059 4:0.0053930706 5:0.0096945055 6:0.008511465 7:0.0066912067 8:0.0091242939 9:0.0082852067 10:0.0068197353 11:0.011726297 12:0.0099986121 13:0.0020685405 # career
-0.050000000000000002775557561562891 1:0.023272231 2:0.0079263933 3:0.0059428727 4:0.0043078368 5:0.0067124837 6:0.005688034 7:0.0044715935 8:0.0067536766 9:0.0058662565 10:0.0048286445 11:0.011704464 12:0.0099540725 13:0.002113312 # job
0.020000000000000000416333634234434 1:0 2:0.015689064 3:0.012875486 4:0.0093331123 5:0.013958195 6:0.01252703 7:0.0098480051 8:0.012302396 9:0.011472313 10:0.0094431117 11:0.016480118 12:0.013984125 13:0.05398972 # job.
0.020000000000000000416333634234434 1:0 2:0.0072863679 3:0.0057205604 4:0.0041466886 5:0.0074421531 6:0.006228046 7:0.0048961188 8:0.0078338329 9:0.0069069108 10:0.0056852298 11:0.01164311 12:0.0099238316 13:0.0017682222 # work
0.020000000000000000416333634234434 1:0 2:0.012191348 3:0.0085159224 4:0.0061729755 5:0.011796904 6:0.0093781371 7:0.0073725325 8:0.010691397 9:0.0089730741 10:0.0073859342 11:0.011797004 12:0.010104125 13:0.0029176967 # specialty
0.020000000000000000416333634234434 1:0 2:0.012697557 3:0.0093707982 4:0.0067926534 5:0.012109699 6:0.0099956105 7:0.0078579532 8:0.010924549 9:0.0094631547 10:0.0077893306 11:0.011740686 12:0.010051173 13:0.0025850569 # occupation
-0.029999999999999998889776975374843 1:0.0077574104 2:0.010127245 3:0.0074400059 4:0.0053930706 5:0.0096945055 6:0.008511465 7:0.0066912067 8:0.0091242939 9:0.0082852067 10:0.0068197353 11:0.011726297 12:0.0099986121 13:0.0020685405 # career
-0.050000000000000002775557561562891 1:0.023272231 2:0.0079263933 3:0.0059428727 4:0.0043078368 5:0.0067124837 6:0.005688034 7:0.0044715935 8:0.0067536766 9:0.0058662565 10:0.0048286445 11:0.011704464 12:0.0099540725 13:0.002113312 # job
0.029999999999999998889776975374843 1:0.10181601 2:0.0081585189 3:0.0079739857 4:0.010860862 5:0.0071454756 6:0.0083789192 7:0.010566957 8:0.0057025766 9:0.0070163566 10:0.0090827523 11:0.010268006 12:0.0096399551 13:0.0020522864 # start
0.029999999999999998889776975374843 1:0 2:0.017709015 3:0.016141798 4:0.016436599 5:0.011502134 6:0.012082603 7:0.013208397 8:0.010559334 9:0.011190221 10:0.012293829 11:0.014987041 12:0.013604296 13:0.05398972 # beggining
0.029999999999999998889776975374843 1:0 2:0.01224941 3:0.013735922 4:0.014692641 5:0.0084099583 6:0.01100904 7:0.012364426 8:0.0082544656 9:0.010338147 10:0.011592468 11:0.01029365 12:0.0096875988 13:0.0023386769 # origin
-0.010000000000000000208166817117217 1:0 2:0.016145622 3:0.015026456 4:0.015628116 5:0.010263913 6:0.01107099 7:0.012413127 8:0.0096363798 9:0.010387315 10:0.01163294 11:0.010466753 12:0.013604296 13:0.05398972 # begining
-0.029999999999999998889776975374843 1:0.10181601 2:0.0081585189 3:0.0079739857 4:0.010860862 5:0.0071454756 6:0.0083789192 7:0.010566957 8:0.0057025766 9:0.0070163566 10:0.0090827523 11:0.010268006 12:0.0096399551 13:0.0020522864 # start
-0.050000000000000002775557561562891 1:0 2:0.0097457329 3:0.012052956 4:0.013472701 5:0.0064694574 6:0.0091923429 7:0.010936246 8:0.0055499198 9:0.0078926627 10:0.0095795365 11:0.010249941 12:0.0096594971 13:0.0021415038 # beginning
0.029999999999999998889776975374843 1:0.10181601 2:0.0081585189 3:0.0079739857 4:0.010860862 5:0.0071454756 6:0.0083789192 7:0.010566957 8:0.0057025766 9:0.0070163566 10:0.0090827523 11:0.010268006 12:0.0096399551 13:0.0020522864 # start
0.029999999999999998889776975374843 1:0 2:0.017709015 3:0.016141798 4:0.016436599 5:0.011502134 6:0.012082603 7:0.013208397 8:0.010559334 9:0.011190221 10:0.012293829 11:0.014987041 12:0.013604296 13:0.05398972 # beggining
0.029999999999999998889776975374843 1:0 2:0.01224941 3:0.013735922 4:0.014692641 5:0.0084099583 6:0.01100904 7:0.012364426 8:0.0082544656 9:0.010338147 10:0.011592468 11:0.01029365 12:0.0096875988 13:0.0023386769 # origin
-0.010000000000000000208166817117217 1:0 2:0.016145622 3:0.015026456 4:0.015628116 5:0.010263913 6:0.01107099 7:0.012413127 8:0.0096363798 9:0.010387315 10:0.01163294 11:0.010466753 12:0.013604296 13:0.05398972 # begining
-0.029999999999999998889776975374843 1:0.10181601 2:0.0081585189 3:0.0079739857 4:0.010860862 5:0.0071454756 6:0.0083789192 7:0.010566957 8:0.0057025766 9:0.0070163566 10:0.0090827523 11:0.010268006 12:0.0096399551 13:0.0020522864 # start
-0.050000000000000002775557561562891 1:0 2:0.0097457329 3:0.012052956 4:0.013472701 5:0.0064694574 6:0.0091923429 7:0.010936246 8:0.0055499198 9:0.0078926627 10:0.0095795365 11:0.010249941 12:0.0096594971 13:0.0021415038 # beginning
0.080000000000000001665334536937735 1:0 2:0.011886537 3:0.010755439 4:0.010928724 5:0.0089214873 6:0.0090599777 7:0.0095761437 8:0.0073487307 9:0.0078033088 10:0.0084621832 11:0.0092072701 12:0.0078934934 13:0.0023365973 # claimed
0.080000000000000001665334536937735 1:0 2:0.011588491 3:0.0096846558 4:0.01030106 5:0.0089643793 6:0.0084587298 7:0.0092198206 8:0.0078338329 9:0.0076405527 10:0.0084248977 11:0.0092474185 12:0.007896632 13:0.0023162814 # recognized
0.080000000000000001665334536937735 1:0 2:0.011341203 3:0.011376072 4:0.011378605 5:0.010856181 6:0.011129595 7:0.011203154 8:0.0093390746 9:0.0098384283 10:0.010137334 11:0.0092397379 12:0.0079928571 13:0.0024379634 # confirmed
0.080000000000000001665334536937735 1:0.0047939052 2:0.0076211947 3:0.0076007671 4:0.0087491395 5:0.0068765245 6:0.0074620866 7:0.0084039178 8:0.0059117489 9:0.0066173645 10:0.0075557632 11:0.0091555398 12:0.0078482013 13:0.0015240196 # made
0.080000000000000001665334536937735 1:0 2:0.01350218 3:0.011376071 4:0.011378603 5:0.011502135 6:0.010607839 7:0.01079298 8:0.0098205591 9:0.0094243158 10:0.0097964695 11:0.0091927983 12:0.0080116745 13:0.0027521066 # labeled
0.080000000000000001665334536937735 1:0 2:0.0081348596 3:0.0077948696 4:0.0071789636 5:0.0072270092 6:0.0072362535 7:0.0069109998 8:0.0060785818 9:0.0063180705 10:0.0062162937 11:0.0090844901 12:0.0078221969 13:0.0014853716 # called
0.080000000000000001665334536937735 1:0 2:0.017035699 3:0.015222514 4:0.014166792 5:0.015807196 6:0.014991952 7:0.014239509 8:0.013029499 9:0.012903933 10:0.012660619 11:0.0095491819 12:0.0081288666 13:0.0035130209 # anounced
0.080000000000000001665334536937735 1:0 2:0.012198001 3:0.012052956 4:0.01186926 5:0.010263913 6:0.01076951 7:0.010920076 8:0.0088976054 9:0.0095526325 10:0.0099020898 11:0.0092015676 12:0.0079326043 13:0.0023397238 # appointed
0.080000000000000001665334536937735 1:0 2:0.013489483 3:0.013108079 4:0.012634092 5:0.011502135 6:0.011864799 7:0.011781127 8:0.0098205591 9:0.01042195 10:0.010617645 11:0.0092688864 12:0.0080694621 13:0.0028998801 # deemed
0.080000000000000001665334536937735 1:0 2:0.011896273 3:0.012537428 4:0.012220441 5:0.010457959 6:0.011882398 7:0.011794963 8:0.0090422435 9:0.010435918 10:0.010629142 11:0.0093414327 12:0.0080342358 13:0.0021460524 # elected
-0.050000000000000002775557561562891 1:0 2:0.010216351 3:0.0088914279 4:0.01037104 5:0.0078670708 6:0.0079296883 7:0.0093091531 8:0.0069160433 9:0.0070183524 10:0.008332612 11:0.0092303352 12:0.0079729324 13:0.0022276258 # said to
-0.050000000000000002775557561562891 1:0 2:0.01422802 3:0.012400829 4:0.01228175 5:0.010781239 6:0.010462913 7:0.010804637 8:0.009119764 9:0.0091775618 10:0.0096977297 11:0.0092011718 12:0.0079554506 13:0.0030354238 # said of
-0.050000000000000002775557561562891 1:0.015253335 2:0.0069790757 3:0.0085515352 4:0.0096745025 5:0.0059699994 6:0.0076825852 7:0.0087622674 8:0.005260048 9:0.0069708508 10:0.0080004707 11:0.0091829868 12:0.0078604044 13:0.0017851365 # said
-0.10999999999999998667732370449812 1:0 2:0.0074237599 3:0.0067417403 4:0.0089799678 5:0.0067135287 6:0.006542949 7:0.0084275305 8:0.0057025775 9:0.0057813167 10:0.0075517651 11:0.0091093369 12:0.0078002783 13:0.0021195868 # told
-0.10999999999999998667732370449812 1:0 2:0.014201402 3:0.013351732 4:0.01281071 5:0.014055843 6:0.013640694 7:0.013177231 8:0.011724062 9:0.011831457 10:0.011777841 11:0.0092321765 12:0.008004969 13:0.0027778277 # proclaimed
-0.10999999999999998667732370449812 1:0.0026148574 2:0.0096471664 3:0.0091009689 4:0.0098323785 5:0.009278453 6:0.0092034964 7:0.0097696055 8:0.0081630545 9:0.008309707 10:0.0089460211 11:0.0091686491 12:0.0079099527 13:0.0017988322 # named
-0.14999999999999999444888487687422 1:0 2:0.012158748 3:0.011376071 4:0.011378603 5:0.0095605664 6:0.0098598357 7:0.010204945 8:0.0078338329 9:0.0083958311 10:0.0089499019 11:0.009209116 12:0.0078941202 13:0.0022073863 # announced
-0.17000000000000001221245327087672 1:0 2:0.0081348596 3:0.0077948696 4:0.0071789636 5:0.0072270092 6:0.0072362535 7:0.0069109998 8:0.0060785818 9:0.0063180705 10:0.0062162937 11:0.0090844901 12:0.0078221969 13:0.0014853716 # called
0.080000000000000001665334536937735 1:0 2:0.011886537 3:0.010755439 4:0.010928724 5:0.0089214873 6:0.0090599777 7:0.0095761437 8:0.0073487307 9:0.0078033088 10:0.0084621832 11:0.0092072701 12:0.0078934934 13:0.0023365973 # claimed
0.080000000000000001665334536937735 1:0 2:0.011588491 3:0.0096846558 4:0.01030106 5:0.0089643793 6:0.0084587298 7:0.0092198206 8:0.0078338329 9:0.0076405527 10:0.0084248977 11:0.0092474185 12:0.007896632 13:0.0023162814 # recognized
0.080000000000000001665334536937735 1:0 2:0.011341203 3:0.011376072 4:0.011378605 5:0.010856181 6:0.011129595 7:0.011203154 8:0.0093390746 9:0.0098384283 10:0.010137334 11:0.0092397379 12:0.0079928571 13:0.0024379634 # confirmed
0.080000000000000001665334536937735 1:0.0047939052 2:0.0076211947 3:0.0076007671 4:0.0087491395 5:0.0068765245 6:0.0074620866 7:0.0084039178 8:0.0059117489 9:0.0066173645 10:0.0075557632 11:0.0091555398 12:0.0078482013 13:0.0015240196 # made
0.080000000000000001665334536937735 1:0 2:0.01350218 3:0.011376071 4:0.011378603 5:0.011502135 6:0.010607839 7:0.01079298 8:0.0098205591 9:0.0094243158 10:0.0097964695 11:0.0091927983 12:0.0080116745 13:0.0027521066 # labeled
0.080000000000000001665334536937735 1:0 2:0.0081348596 3:0.0077948696 4:0.0071789636 5:0.0072270092 6:0.0072362535 7:0.0069109998 8:0.0060785818 9:0.0063180705 10:0.0062162937 11:0.0090844901 12:0.0078221969 13:0.0014853716 # called
0.080000000000000001665334536937735 1:0 2:0.017035699 3:0.015222514 4:0.014166792 5:0.015807196 6:0.014991952 7:0.014239509 8:0.013029499 9:0.012903933 10:0.012660619 11:0.0095491819 12:0.0081288666 13:0.0035130209 # anounced
0.080000000000000001665334536937735 1:0 2:0.012198001 3:0.012052956 4:0.01186926 5:0.010263913 6:0.01076951 7:0.010920076 8:0.0088976054 9:0.0095526325 10:0.0099020898 11:0.0092015676 12:0.0079326043 13:0.0023397238 # appointed
0.080000000000000001665334536937735 1:0 2:0.013489483 3:0.013108079 4:0.012634092 5:0.011502135 6:0.011864799 7:0.011781127 8:0.0098205591 9:0.01042195 10:0.010617645 11:0.0092688864 12:0.0080694621 13:0.0028998801 # deemed
0.080000000000000001665334536937735 1:0 2:0.011896273 3:0.012537428 4:0.012220441 5:0.010457959 6:0.011882398 7:0.011794963 8:0.0090422435 9:0.010435918 10:0.010629142 11:0.0093414327 12:0.0080342358 13:0.0021460524 # elected
-0.050000000000000002775557561562891 1:0 2:0.010216351 3:0.0088914279 4:0.01037104 5:0.0078670708 6:0.0079296883 7:0.0093091531 8:0.0069160433 9:0.0070183524 10:0.008332612 11:0.0092303352 12:0.0079729324 13:0.0022276258 # said to
-0.050000000000000002775557561562891 1:0 2:0.01422802 3:0.012400829 4:0.01228175 5:0.010781239 6:0.010462913 7:0.010804637 8:0.009119764 9:0.0091775618 10:0.0096977297 11:0.0092011718 12:0.0079554506 13:0.0030354238 # said of
-0.050000000000000002775557561562891 1:0.015253335 2:0.0069790757 3:0.0085515352 4:0.0096745025 5:0.0059699994 6:0.0076825852 7:0.0087622674 8:0.005260048 9:0.0069708508 10:0.0080004707 11:0.0091829868 12:0.0078604044 13:0.0017851365 # said
-0.10999999999999998667732370449812 1:0 2:0.0074237599 3:0.0067417403 4:0.0089799678 5:0.0067135287 6:0.006542949 7:0.0084275305 8:0.0057025775 9:0.0057813167 10:0.0075517651 11:0.0091093369 12:0.0078002783 13:0.0021195868 # told
-0.10999999999999998667732370449812 1:0 2:0.014201402 3:0.013351732 4:0.01281071 5:0.014055843 6:0.013640694 7:0.013177231 8:0.011724062 9:0.011831457 10:0.011777841 11:0.0092321765 12:0.008004969 13:0.0027778277 # proclaimed
-0.10999999999999998667732370449812 1:0.0026148574 2:0.0096471664 3:0.0091009689 4:0.0098323785 5:0.009278453 6:0.0092034964 7:0.0097696055 8:0.0081630545 9:0.008309707 10:0.0089460211 11:0.0091686491 12:0.0079099527 13:0.0017988322 # named
-0.14999999999999999444888487687422 1:0 2:0.012158748 3:0.011376071 4:0.011378603 5:0.0095605664 6:0.0098598357 7:0.010204945 8:0.0078338329 9:0.0083958311 10:0.0089499019 11:0.009209116 12:0.0078941202 13:0.0022073863 # announced
-0.17000000000000001221245327087672 1:0 2:0.0081348596 3:0.0077948696 4:0.0071789636 5:0.0072270092 6:0.0072362535 7:0.0069109998 8:0.0060785818 9:0.0063180705 10:0.0062162937 11:0.0090844901 12:0.0078221969 13:0.0014853716 # called
0.080000000000000001665334536937735 1:0 2:0.012447867 3:0.010553665 4:0.011589739 5:0.011502134 6:0.01050691 7:0.01134601 8:0.013608664 9:0.012397161 10:0.012769002 11:0.0043779598 12:0.0039138915 13:0.0021079807 # mainly
0.080000000000000001665334536937735 1:0 2:0.0093172863 3:0.0099584609 4:0.011423914 5:0.0081845038 6:0.0089654904 7:0.010342311 8:0.011135744 9:0.011173754 10:0.011934904 11:0.0042680968 12:0.0038413047 13:0.0025027737 # this way
0.080000000000000001665334536937735 1:0 2:0.026396779 3:0.01899807 4:0.017821588 5:0.019609578 6:0.016218895 7:0.015923159 8:0.019651849 9:0.016930692 10:0.016572721 11:0.0046162382 12:0.0041936715 13:0.0065774829 # close detail to
0.080000000000000001665334536937735 1:0 2:0.012483031 3:0.011719096 4:0.01243453 5:0.0086316625 6:0.010167677 7:0.011079324 8:0.01146905 9:0.012127915 10:0.01254738 11:0.004484545 12:0.0039245361 13:0.0026366333 # relation
0.080000000000000001665334536937735 1:0 2:0.011818709 3:0.011457742 4:0.012245081 5:0.01070395 6:0.010850039 7:0.011615758 8:0.013013708 9:0.012669497 10:0.012993168 11:0.004385863 12:0.0039064246 13:0.0020762563 # for example
0.080000000000000001665334536937735 1:0 2:0.013042433 3:0.012052956 4:0.012676535 5:0.012272527 6:0.011894868 7:0.012437139 8:0.014182906 9:0.013498765 10:0.013675757 11:0.0044272128 12:0.0039465348 13:0.0028678561 # import
0.080000000000000001665334536937735 1:0.0010482987 2:0.0046887207 3:0.0056676767 4:0.0078172358 5:0.0055343476 6:0.0077894237 7:0.0090289088 8:0.009160351 9:0.010240325 10:0.010843434 11:0.0042313361 12:0.003805948 13:0.00120823 # that
0.080000000000000001665334536937735 1:0 2:0.0098951636 3:0.0087767504 4:0.010465132 5:0.010327783 6:0.0095284795 7:0.010704851 8:0.012733319 9:0.011620592 10:0.012236183 11:0.0044419928 12:0.0038728192 13:0.0017523168 # usually
0.080000000000000001665334536937735 1:0.0062897922 2:0.009482665 3:0.0091309268 4:0.010605302 5:0.0083353501 6:0.0086811734 7:0.0099474397 8:0.011248183 9:0.010948095 10:0.011606755 11:0.0043926737 12:0.003908915 13:0.002056794 # certain
0.080000000000000001665334536937735 1:0.0020965973 2:0.008968669 3:0.010958777 4:0.012406798 5:0.0089870337 6:0.010643436 7:0.011863343 8:0.01173394 9:0.012505519 10:0.013198918 11:0.0044489945 12:0.0039495877 13:0.0019785289 # special
0.080000000000000001665334536937735 1:0.0036690454 2:0.010504231 3:0.011376071 4:0.012185879 5:0.010704136 6:0.011405957 7:0.012052787 8:0.013013846 9:0.013110722 10:0.01335635 11:0.0044820998 12:0.0039419942 13:0.0018133215 # example
0.080000000000000001665334536937735 1:0 2:0.011959457 3:0.011710625 4:0.012428389 5:0.009278453 6:0.010324035 7:0.011202244 8:0.011951161 9:0.012252015 10:0.012649529 11:0.0042644031 12:0.003911295 13:0.0029654349 # essence
0.080000000000000001665334536937735 1:0 2:0.010744028 3:0.0079887863 4:0.0098144831 5:0.010852309 6:0.0089593353 7:0.010195169 8:0.013124294 9:0.01116887 10:0.011812625 11:0.00435413 12:0.0039056197 13:0.001836794 # including
0.080000000000000001665334536937735 1:0 2:0.012686454 3:0.011212536 4:0.012067338 5:0.012052563 6:0.011287836 7:0.011959928 8:0.014018947 9:0.013016972 10:0.013279181 11:0.0044836085 12:0.0039383299 13:0.0025070179 # distinct
0.080000000000000001665334536937735 1:0 2:0.0086231241 3:0.0093067801 4:0.010712136 5:0.011806461 6:0.011625428 7:0.012245871 8:0.013835507 9:0.013284915 10:0.013516809 11:0.0045276317 12:0.0040255557 13:0.0026931793 # of course
0.080000000000000001665334536937735 1:0 2:0.012346723 3:0.010477668 4:0.01153465 5:0.010263913 6:0.0097373063 7:0.010740994 8:0.01268571 9:0.011786335 10:0.012266218 11:0.0089909453 12:0.0078192307 13:0.05398972 # reguard
0.080000000000000001665334536937735 1:0 2:0.011010612 3:0.0099342111 4:0.011140712 5:0.0094030863 6:0.0091429334 7:0.010273733 8:0.01204406 9:0.011314589 10:0.011877912 11:0.0044928952 12:0.0038878485 13:0.0024052626 # actual
0.080000000000000001665334536937735 1:0 2:0.010113485 3:0.012052957 4:0.012676538 5:0.0081665842 6:0.010392734 7:0.011256251 8:0.011122387 9:0.012306539 10:0.012694409 11:0.0044085491 12:0.0039185332 13:0.0022338878 # nature
-0.14000000000000001332267629550188 1:0 2:0.015472305 3:0.013773458 4:0.014104339 5:0.011018874 6:0.011168131 7:0.012007337 8:0.013248448 9:0.012921963 10:0.01331858 11:0.0044779554 12:0.0039231922 13:0.0029239501 # a special way
-0.14000000000000001332267629550188 1:0 2:0.010013756 3:0.012052956 4:0.012676535 5:0.0078425687 6:0.010453681 7:0.011304165 8:0.01088087 9:0.012354913 10:0.012734227 11:0.0042559439 12:0.0038555106 13:0.0020986041 # general
-0.14000000000000001332267629550188 1:0 2:0.010983465 3:0.0099037318 4:0.011118619 5:0.0084011964 6:0.0082758758 7:0.0095921038 8:0.011297264 9:0.010626417 10:0.011311463 11:0.0042974781 12:0.0038357803 13:0.0026170078 # detail
-0.14000000000000001332267629550188 1:0 2:0.011983247 3:0.01226173 4:0.012827871 5:0.010034267 6:0.01084693 7:0.011613313 8:0.012514533 9:0.012667029 10:0.012991137 11:0.0044857995 12:0.0039031282 13:0.0024527772 # an example
-0.19000000000000000222044604925031 1:0 2:0.008836858 3:0.0091623804 4:0.010610251 5:0.0066193608 6:0.0069213482 7:0.0085566593 8:0.009969105 9:0.0095513435 10:0.010450983 11:0.0041851499 12:0.0037410518 13:0.0022064934 # fact
-0.21000000000000001998401444325282 1:0.0041931947 2:0.01168787 3:0.01001841 4:0.011306318 5:0.011502134 6:0.010475741 7:0.011403423 8:0.013608664 9:0.012372422 10:0.012816714 11:0.0044033346 12:0.0039234525 13:0.0025236544 # specifically
-0.2299999999999999822364316059975 1:0.0078622401 2:0.010114265 3:0.0082784463 4:0.01003012 5:0.011502134 6:0.009954934 7:0.01098229 8:0.013608664 9:0.011959064 10:0.012466742 11:0.0043808068 12:0.0038981775 13:0.002052749 # especially
-0.25 1:0.0041931947 2:0.01101752 3:0.012052956 4:0.012676535 5:0.010457959 6:0.01146848 7:0.01210194 8:0.012830349 9:0.013160347 10:0.013397196 11:0.0044623427 12:0.0038910895 13:0.0023097289 # specific
0.080000000000000001665334536937735 1:0 2:0.012447867 3:0.010553665 4:0.011589739 5:0.011502134 6:0.01050691 7:0.01134601 8:0.013608664 9:0.012397161 10:0.012769002 11:0.0043779598 12:0.0039138915 13:0.0021079807 # mainly
0.080000000000000001665334536937735 1:0 2:0.0093172863 3:0.0099584609 4:0.011423914 5:0.0081845038 6:0.0089654904 7:0.010342311 8:0.011135744 9:0.011173754 10:0.011934904 11:0.0042680968 12:0.0038413047 13:0.0025027737 # this way
0.080000000000000001665334536937735 1:0 2:0.026396779 3:0.01899807 4:0.017821588 5:0.019609578 6:0.016218895 7:0.015923159 8:0.019651849 9:0.016930692 10:0.016572721 11:0.0046162382 12:0.0041936715 13:0.0065774829 # close detail to
0.080000000000000001665334536937735 1:0 2:0.012483031 3:0.011719096 4:0.01243453 5:0.0086316625 6:0.010167677 7:0.011079324 8:0.01146905 9:0.012127915 10:0.01254738 11:0.004484545 12:0.0039245361 13:0.0026366333 # relation
0.080000000000000001665334536937735 1:0 2:0.011818709 3:0.011457742 4:0.012245081 5:0.01070395 6:0.010850039 7:0.011615758 8:0.013013708 9:0.012669497 10:0.012993168 11:0.004385863 12:0.0039064246 13:0.0020762563 # for example
0.080000000000000001665334536937735 1:0 2:0.013042433 3:0.012052956 4:0.012676535 5:0.012272527 6:0.011894868 7:0.012437139 8:0.014182906 9:0.013498765 10:0.013675757 11:0.0044272128 12:0.0039465348 13:0.0028678561 # import
0.080000000000000001665334536937735 1:0.0010482987 2:0.0046887207 3:0.0056676767 4:0.0078172358 5:0.0055343476 6:0.0077894237 7:0.0090289088 8:0.009160351 9:0.010240325 10:0.010843434 11:0.0042313361 12:0.003805948 13:0.00120823 # that
0.080000000000000001665334536937735 1:0 2:0.0098951636 3:0.0087767504 4:0.010465132 5:0.010327783 6:0.0095284795 7:0.010704851 8:0.012733319 9:0.011620592 10:0.012236183 11:0.0044419928 12:0.0038728192 13:0.0017523168 # usually
0.080000000000000001665334536937735 1:0.0062897922 2:0.009482665 3:0.0091309268 4:0.010605302 5:0.0083353501 6:0.0086811734 7:0.0099474397 8:0.011248183 9:0.010948095 10:0.011606755 11:0.0043926737 12:0.003908915 13:0.002056794 # certain
0.080000000000000001665334536937735 1:0.0020965973 2:0.008968669 3:0.010958777 4:0.012406798 5:0.0089870337 6:0.010643436 7:0.011863343 8:0.01173394 9:0.012505519 10:0.013198918 11:0.0044489945 12:0.0039495877 13:0.0019785289 # special
0.080000000000000001665334536937735 1:0.0036690454 2:0.010504231 3:0.011376071 4:0.012185879 5:0.010704136 6:0.011405957 7:0.012052787 8:0.013013846 9:0.013110722 10:0.01335635 11:0.0044820998 12:0.0039419942 13:0.0018133215 # example
0.080000000000000001665334536937735 1:0 2:0.011959457 3:0.011710625 4:0.012428389 5:0.009278453 6:0.010324035 7:0.011202244 8:0.011951161 9:0.012252015 10:0.012649529 11:0.0042644031 12:0.003911295 13:0.0029654349 # essence
0.080000000000000001665334536937735 1:0 2:0.010744028 3:0.0079887863 4:0.0098144831 5:0.010852309 6:0.0089593353 7:0.010195169 8:0.013124294 9:0.01116887 10:0.011812625 11:0.00435413 12:0.0039056197 13:0.001836794 # including
0.080000000000000001665334536937735 1:0 2:0.012686454 3:0.011212536 4:0.012067338 5:0.012052563 6:0.011287836 7:0.011959928 8:0.014018947 9:0.013016972 10:0.013279181 11:0.0044836085 12:0.0039383299 13:0.0025070179 # distinct
0.080000000000000001665334536937735 1:0 2:0.0086231241 3:0.0093067801 4:0.010712136 5:0.011806461 6:0.011625428 7:0.012245871 8:0.013835507 9:0.013284915 10:0.013516809 11:0.0045276317 12:0.0040255557 13:0.0026931793 # of course
0.080000000000000001665334536937735 1:0 2:0.012346723 3:0.010477668 4:0.01153465 5:0.010263913 6:0.0097373063 7:0.010740994 8:0.01268571 9:0.011786335 10:0.012266218 11:0.0089909453 12:0.0078192307 13:0.05398972 # reguard
0.080000000000000001665334536937735 1:0 2:0.011010612 3:0.0099342111 4:0.011140712 5:0.0094030863 6:0.0091429334 7:0.010273733 8:0.01204406 9:0.011314589 10:0.011877912 11:0.0044928952 12:0.0038878485 13:0.0024052626 # actual
0.080000000000000001665334536937735 1:0 2:0.010113485 3:0.012052957 4:0.012676538 5:0.0081665842 6:0.010392734 7:0.011256251 8:0.011122387 9:0.012306539 10:0.012694409 11:0.0044085491 12:0.0039185332 13:0.0022338878 # nature
-0.14000000000000001332267629550188 1:0 2:0.015472305 3:0.013773458 4:0.014104339 5:0.011018874 6:0.011168131 7:0.012007337 8:0.013248448 9:0.012921963 10:0.01331858 11:0.0044779554 12:0.0039231922 13:0.0029239501 # a special way
-0.14000000000000001332267629550188 1:0 2:0.010013756 3:0.012052956 4:0.012676535 5:0.0078425687 6:0.010453681 7:0.011304165 8:0.01088087 9:0.012354913 10:0.012734227 11:0.0042559439 12:0.0038555106 13:0.0020986041 # general
-0.14000000000000001332267629550188 1:0 2:0.010983465 3:0.0099037318 4:0.011118619 5:0.0084011964 6:0.0082758758 7:0.0095921038 8:0.011297264 9:0.010626417 10:0.011311463 11:0.0042974781 12:0.0038357803 13:0.0026170078 # detail
-0.14000000000000001332267629550188 1:0 2:0.011983247 3:0.01226173 4:0.012827871 5:0.010034267 6:0.01084693 7:0.011613313 8:0.012514533 9:0.012667029 10:0.012991137 11:0.0044857995 12:0.0039031282 13:0.0024527772 # an example
-0.19000000000000000222044604925031 1:0 2:0.008836858 3:0.0091623804 4:0.010610251 5:0.0066193608 6:0.0069213482 7:0.0085566593 8:0.009969105 9:0.0095513435 10:0.010450983 11:0.0041851499 12:0.0037410518 13:0.0022064934 # fact
-0.21000000000000001998401444325282 1:0.0041931947 2:0.01168787 3:0.01001841 4:0.011306318 5:0.011502134 6:0.010475741 7:0.011403423 8:0.013608664 9:0.012372422 10:0.012816714 11:0.0044033346 12:0.0039234525 13:0.0025236544 # specifically
-0.2299999999999999822364316059975 1:0.0078622401 2:0.010114265 3:0.0082784463 4:0.01003012 5:0.011502134 6:0.009954934 7:0.01098229 8:0.013608664 9:0.011959064 10:0.012466742 11:0.0043808068 12:0.0038981775 13:0.002052749 # especially
-0.25 1:0.0041931947 2:0.01101752 3:0.012052956 4:0.012676535 5:0.010457959 6:0.01146848 7:0.01210194 8:0.012830349 9:0.013160347 10:0.013397196 11:0.0044623427 12:0.0038910895 13:0.0023097289 # specific
0.050000000000000002775557561562891 1:0.016992424 2:0.0048969113 3:0.006015534 4:0.0050379392 5:0.007611902 6:0.0071170568 7:0.006556429 8:0.0085670119 9:0.0079804352 10:0.0073678368 11:0.021401204 12:0.017908232 13:0.00094505114 # is
0.050000000000000002775557561562891 1:0 2:0.011674146 3:0.010755438 4:0.0084385704 5:0.013847553 6:0.012789725 7:0.010557604 8:0.01321499 9:0.012482763 10:0.010692911 11:0.021567371 12:0.01803676 13:0.0023002315 # nearby
0.050000000000000002775557561562891 1:0.070977665 2:0.01149834 3:0.0088410815 4:0.0068823402 5:0.013738921 6:0.011406994 7:0.0093385419 8:0.013134016 9:0.011385307 10:0.0096798409 11:0.021333026 12:0.01788618 13:0.0018184326 # located
0.050000000000000002775557561562891 1:0.00026385751 2:0.014150265 3:0.010553665 4:0.0083773909 5:0.015377585 6:0.012643986 7:0.010509681 8:0.014355455 9:0.012367091 10:0.010653085 11:0.021355299 12:0.0179631 13:0.0024240299 # situated
0.050000000000000002775557561562891 1:0 2:0.011490253 3:0.0091009689 4:0.0072620902 5:0.013733924 6:0.01159471 7:0.0096360175 8:0.01313029 9:0.011534293 10:0.0099270493 11:0.021630667 12:0.018149458 13:0.0029116056 # laying
0.050000000000000002775557561562891 1:0 2:0.033158574 3:0.02366679 4:0.017658481 5:0.024298321 6:0.019977503 7:0.016099166 8:0.021004861 9:0.018187614 10:0.015298084 11:0.026537938 12:0.022289146 13:0.058593117 # that has it's place
0.050000000000000002775557561562891 1:0 2:0.014342432 3:0.011376071 4:0.0088884505 5:0.015496327 6:0.013238006 7:0.010910016 8:0.014443965 9:0.012838558 10:0.010985774 11:0.02153712 12:0.01815667 13:0.003035424 # positioned
0.050000000000000002775557561562891 1:0.00073880097 2:0.0094836848 3:0.0080065047 4:0.0063314317 5:0.011502134 6:0.010053427 7:0.0083167916 8:0.011466742 9:0.010310995 10:0.0088307401 11:0.021489505 12:0.018029859 13:0.0026004887 # lying
0.050000000000000002775557561562891 1:0 2:0.008514367 3:0.0081064636 4:0.006717741 5:0.01189508 6:0.010876384 7:0.0092096049 8:0.011759639 9:0.010964166 10:0.0095726904 11:0.021503851 12:0.018029714 13:0.0019291483 # set
-0.050000000000000002775557561562891 1:0 2:0.0088227978 3:0.0091309249 4:0.0071424693 5:0.01093412 6:0.010744762 7:0.0088571236 8:0.011043353 9:0.010859701 10:0.0092797708 11:0.021499587 12:0.017982358 13:0.0019007939 # that is
-0.070000000000000006661338147750939 1:0 2:0.010811313 3:0.0092127258 4:0.0078172358 5:0.013314397 6:0.011675432 7:0.010070887 8:0.01281758 9:0.011598362 10:0.010288437 11:0.021466158 12:0.018030336 13:0.0019143285 # based
-0.10000000000000000555111512312578 1:0.00026385751 2:0.014150265 3:0.010553665 4:0.0083773909 5:0.015377585 6:0.012643986 7:0.010509681 8:0.014355455 9:0.012367091 10:0.010653085 11:0.021355299 12:0.0179631 13:0.0024240299 # situated
-0.10000000000000000555111512312578 1:0.003482919 2:0.011309929 3:0.0085044857 4:0.0068264408 5:0.013622498 6:0.011163873 7:0.0092947539 8:0.013047236 9:0.011192344 10:0.0096434513 11:0.021471789 12:0.018034557 13:0.0022174437 # placed
-0.13000000000000000444089209850063 1:0.019261597 2:0.0079610273 3:0.007227777 4:0.0056964243 5:0.011502134 6:0.010203089 7:0.0083791995 8:0.011466742 9:0.010429781 10:0.0088826036 11:0.021461716 12:0.017957013 13:0.0015928744 # found
0.050000000000000002775557561562891 1:0.016992424 2:0.0048969113 3:0.006015534 4:0.0050379392 5:0.007611902 6:0.0071170568 7:0.006556429 8:0.0085670119 9:0.0079804352 10:0.0073678368 11:0.021401204 12:0.017908232 13:0.00094505114 # is
0.050000000000000002775557561562891 1:0 2:0.011674146 3:0.010755438 4:0.0084385704 5:0.013847553 6:0.012789725 7:0.010557604 8:0.01321499 9:0.012482763 10:0.010692911 11:0.021567371 12:0.01803676 13:0.0023002315 # nearby
0.050000000000000002775557561562891 1:0.070977665 2:0.01149834 3:0.0088410815 4:0.0068823402 5:0.013738921 6:0.011406994 7:0.0093385419 8:0.013134016 9:0.011385307 10:0.0096798409 11:0.021333026 12:0.01788618 13:0.0018184326 # located
0.050000000000000002775557561562891 1:0.00026385751 2:0.014150265 3:0.010553665 4:0.0083773909 5:0.015377585 6:0.012643986 7:0.010509681 8:0.014355455 9:0.012367091 10:0.010653085 11:0.021355299 12:0.0179631 13:0.0024240299 # situated
0.050000000000000002775557561562891 1:0 2:0.011490253 3:0.0091009689 4:0.0072620902 5:0.013733924 6:0.01159471 7:0.0096360175 8:0.01313029 9:0.011534293 10:0.0099270493 11:0.021630667 12:0.018149458 13:0.0029116056 # laying
0.050000000000000002775557561562891 1:0 2:0.033158574 3:0.02366679 4:0.017658481 5:0.024298321 6:0.019977503 7:0.016099166 8:0.021004861 9:0.018187614 10:0.015298084 11:0.026537938 12:0.022289146 13:0.058593117 # that has it's place
0.050000000000000002775557561562891 1:0 2:0.014342432 3:0.011376071 4:0.0088884505 5:0.015496327 6:0.013238006 7:0.010910016 8:0.014443965 9:0.012838558 10:0.010985774 11:0.02153712 12:0.01815667 13:0.003035424 # positioned
0.050000000000000002775557561562891 1:0.00073880097 2:0.0094836848 3:0.0080065047 4:0.0063314317 5:0.011502134 6:0.010053427 7:0.0083167916 8:0.011466742 9:0.010310995 10:0.0088307401 11:0.021489505 12:0.018029859 13:0.0026004887 # lying
0.050000000000000002775557561562891 1:0 2:0.008514367 3:0.0081064636 4:0.006717741 5:0.01189508 6:0.010876384 7:0.0092096049 8:0.011759639 9:0.010964166 10:0.0095726904 11:0.021503851 12:0.018029714 13:0.0019291483 # set
-0.050000000000000002775557561562891 1:0 2:0.0088227978 3:0.0091309249 4:0.0071424693 5:0.01093412 6:0.010744762 7:0.0088571236 8:0.011043353 9:0.010859701 10:0.0092797708 11:0.021499587 12:0.017982358 13:0.0019007939 # that is
-0.070000000000000006661338147750939 1:0 2:0.010811313 3:0.0092127258 4:0.0078172358 5:0.013314397 6:0.011675432 7:0.010070887 8:0.01281758 9:0.011598362 10:0.010288437 11:0.021466158 12:0.018030336 13:0.0019143285 # based
-0.10000000000000000555111512312578 1:0.00026385751 2:0.014150265 3:0.010553665 4:0.0083773909 5:0.015377585 6:0.012643986 7:0.010509681 8:0.014355455 9:0.012367091 10:0.010653085 11:0.021355299 12:0.0179631 13:0.0024240299 # situated
-0.10000000000000000555111512312578 1:0.003482919 2:0.011309929 3:0.0085044857 4:0.0068264408 5:0.013622498 6:0.011163873 7:0.0092947539 8:0.013047236 9:0.011192344 10:0.0096434513 11:0.021471789 12:0.018034557 13:0.0022174437 # placed
-0.13000000000000000444089209850063 1:0.019261597 2:0.0079610273 3:0.007227777 4:0.0056964243 5:0.011502134 6:0.010203089 7:0.0083791995 8:0.011466742 9:0.010429781 10:0.0088826036 11:0.021461716 12:0.017957013 13:0.0015928744 # found
0.070000000000000006661338147750939 1:0.0010530421 2:0.0057751215 3:0.0049440479 4:0.0092810122 5:0.0072271028 6:0.0069346228 7:0.010151153 8:0.0053869928 9:0.0055039255 10:0.0084358556 11:0.0018372172 12:0.0020165003 13:0.0019652015 # got
0.070000000000000006661338147750939 1:0 2:0.011143139 3:0.0090188114 4:0.011970284 5:0.0095421979 6:0.0086255996 7:0.011036663 8:0.0071126362 9:0.006846033 10:0.0091717355 11:0.0018396132 12:0.0020355326 13:0.0023153345 # entered
0.070000000000000006661338147750939 1:0 2:0.014033088 3:0.010755437 4:0.013233399 5:0.014717374 6:0.012344825 7:0.013963848 8:0.010970147 9:0.0097979372 10:0.011604298 11:0.001719655 12:0.0019646832 13:0.0029176967 # attained
0.070000000000000006661338147750939 1:0 2:0.012346723 3:0.010690568 4:0.013057155 5:0.013675342 6:0.012297968 7:0.013825787 8:0.010193431 9:0.0097607477 10:0.011489565 11:0.0066265012 12:0.0060766814 13:0.05398972 # acheived
0.070000000000000006661338147750939 1:0 2:0.010571292 3:0.0078041065 4:0.011339486 5:0.011637641 6:0.0096263383 7:0.012018993 8:0.0086745536 9:0.0076403073 10:0.0099880761 11:0.001807471 12:0.002012701 13:0.0020991678 # received
0.070000000000000006661338147750939 1:0 2:0.014150265 3:0.011673896 4:0.012949043 5:0.012117024 6:0.010985252 7:0.012150761 8:0.0090318788 9:0.0087188613 10:0.010097578 11:0.0019556463 12:0.0021900597 13:0.0041774511 # got up to
0.070000000000000006661338147750939 1:0 2:0.012409766 3:0.011224762 4:0.013444378 5:0.012229911 6:0.011560303 7:0.013245879 8:0.0091160238 9:0.0091752717 10:0.011007648 11:0.0019273846 12:0.0021326642 13:0.0024596744 # extended
0.070000000000000006661338147750939 1:0 2:0.0078691505 3:0.010018409 4:0.01172736 5:0.0089263767 6:0.011112806 7:0.012234067 8:0.0066536102 9:0.0088200988 10:0.010166807 11:0.0018984549 12:0.0020927195 13:0.0026601001 # got to
0.070000000000000006661338147750939 1:0 2:0.010508327 3:0.0087767504 4:0.011945595 5:0.0088994941 6:0.0085810376 7:0.011119738 8:0.0066335727 9:0.0068106647 10:0.0092407735 11:0.0019147319 12:0.0021217768 13:0.0027181469 # touched
0.070000000000000006661338147750939 1:0.00042121686 2:0.0053282944 3:0.0049641258 4:0.0090702651 5:0.0045689051 6:0.0043451297 7:0.0078551769 8:0.0034056052 9:0.0034486766 10:0.0065278434 11:0.0017656557 12:0.0019161467 13:0.0010888845 # was
0.070000000000000006661338147750939 1:0 2:0.0086931 3:0.0074327472 4:0.011124708 5:0.012229911 6:0.010559598 7:0.012795289 8:0.0091160238 9:0.008381024 10:0.010633197 11:0.0018924964 12:0.0020831001 13:0.0021764128 # met
0.070000000000000006661338147750939 1:0 2:0.010146442 3:0.0084502306 4:0.011594978 5:0.010549031 6:0.0094032232 7:0.011676846 8:0.0078631165 9:0.0074632233 10:0.0097037433 11:0.0018393593 12:0.0020586927 13:0.0019927789 # held
0.070000000000000006661338147750939 1:0 2:0.009208221 3:0.0077254898 4:0.010197474 5:0.0092083914 6:0.0084518678 7:0.010245749 8:0.0068638208 9:0.0067081442 10:0.0085144658 11:0.0018442061 12:0.0020553484 13:0.0020512112 # went to
0.070000000000000006661338147750939 1:0 2:0.012285258 3:0.0096487021 4:0.012344694 5:0.012229911 6:0.010480154 7:0.012430226 8:0.0091160238 9:0.0083179697 10:0.01032982 11:0.0017747723 12:0.0020679617 13:0.0025378694 # achieved
-0.090000000000000010547118733938987 1:0 2:0.015145456 3:0.014253891 4:0.014703278 5:0.014727308 6:0.014359016 7:0.014712194 8:0.010977552 9:0.011396576 10:0.012226191 11:0.0018854479 12:0.0021713981 13:0.0033891439 # climbed to
-0.090000000000000010547118733938987 1:0 2:0.0076211947 3:0.006133121 4:0.010398521 5:0.0074166893 6:0.0067562433 7:0.010092511 8:0.005528308 9:0.0053623477 10:0.0083871214 11:0.0018229571 12:0.0020089154 13:0.0015240196 # made
-0.11999999999999999555910790149937 1:0.0025273012 2:0.013870815 3:0.012478815 4:0.01435341 5:0.012229911 6:0.011782782 7:0.013420778 8:0.0091160238 9:0.0093518505 10:0.011152994 11:0.0019296211 12:0.0021048924 13:0.0027711282 # topped
-0.14999999999999999444888487687422 1:0 2:0.012114872 3:0.0092486786 4:0.012192421 5:0.012229911 6:0.010270907 7:0.012373589 8:0.0091160238 9:0.0081518935 10:0.010282754 11:0.0018321809 12:0.0020381787 13:0.0023802803 # gained
-0.14999999999999999444888487687422 1:0 2:0.0094912685 3:0.0087345205 4:0.010849983 5:0.0087241819 6:0.0084958542 7:0.010288158 8:0.006502897 9:0.0067430558 10:0.0085497098 11:0.0017965625 12:0.0020416074 13:0.0021988915 # came to
-0.18000000000000002109423746787797 1:0 2:0.0078691505 3:0.010018409 4:0.01172736 5:0.0089263767 6:0.011112806 7:0.012234067 8:0.0066536102 9:0.0088200988 10:0.010166807 11:0.0018984549 12:0.0020927195 13:0.0026601001 # got to
-0.20000000000000001110223024625157 1:0 2:0.0083956309 3:0.0073525063 4:0.010989476 5:0.0085855871 6:0.0087670367 7:0.011325714 8:0.0063995905 9:0.0069582905 10:0.0094119441 11:0.0017921543 12:0.0020292366 13:0.0020906741 # hit
0.070000000000000006661338147750939 1:0.0010530421 2:0.0057751215 3:0.0049440479 4:0.0092810122 5:0.0072271028 6:0.0069346228 7:0.010151153 8:0.0053869928 9:0.0055039255 10:0.0084358556 11:0.0018372172 12:0.0020165003 13:0.0019652015 # got
0.070000000000000006661338147750939 1:0 2:0.011143139 3:0.0090188114 4:0.011970284 5:0.0095421979 6:0.0086255996 7:0.011036663 8:0.0071126362 9:0.006846033 10:0.0091717355 11:0.0018396132 12:0.0020355326 13:0.0023153345 # entered
0.070000000000000006661338147750939 1:0 2:0.014033088 3:0.010755437 4:0.013233399 5:0.014717374 6:0.012344825 7:0.013963848 8:0.010970147 9:0.0097979372 10:0.011604298 11:0.001719655 12:0.0019646832 13:0.0029176967 # attained
0.070000000000000006661338147750939 1:0 2:0.012346723 3:0.010690568 4:0.013057155 5:0.013675342 6:0.012297968 7:0.013825787 8:0.010193431 9:0.0097607477 10:0.011489565 11:0.0066265012 12:0.0060766814 13:0.05398972 # acheived
0.070000000000000006661338147750939 1:0 2:0.010571292 3:0.0078041065 4:0.011339486 5:0.011637641 6:0.0096263383 7:0.012018993 8:0.0086745536 9:0.0076403073 10:0.0099880761 11:0.001807471 12:0.002012701 13:0.0020991678 # received
0.070000000000000006661338147750939 1:0 2:0.014150265 3:0.011673896 4:0.012949043 5:0.012117024 6:0.010985252 7:0.012150761 8:0.0090318788 9:0.0087188613 10:0.010097578 11:0.0019556463 12:0.0021900597 13:0.0041774511 # got up to
0.070000000000000006661338147750939 1:0 2:0.012409766 3:0.011224762 4:0.013444378 5:0.012229911 6:0.011560303 7:0.013245879 8:0.0091160238 9:0.0091752717 10:0.011007648 11:0.0019273846 12:0.0021326642 13:0.0024596744 # extended
0.070000000000000006661338147750939 1:0 2:0.0078691505 3:0.010018409 4:0.01172736 5:0.0089263767 6:0.011112806 7:0.012234067 8:0.0066536102 9:0.0088200988 10:0.010166807 11:0.0018984549 12:0.0020927195 13:0.0026601001 # got to
0.070000000000000006661338147750939 1:0 2:0.010508327 3:0.0087767504 4:0.011945595 5:0.0088994941 6:0.0085810376 7:0.011119738 8:0.0066335727 9:0.0068106647 10:0.0092407735 11:0.0019147319 12:0.0021217768 13:0.0027181469 # touched
0.070000000000000006661338147750939 1:0.00042121686 2:0.0053282944 3:0.0049641258 4:0.0090702651 5:0.0045689051 6:0.0043451297 7:0.0078551769 8:0.0034056052 9:0.0034486766 10:0.0065278434 11:0.0017656557 12:0.0019161467 13:0.0010888845 # was
0.070000000000000006661338147750939 1:0 2:0.0086931 3:0.0074327472 4:0.011124708 5:0.012229911 6:0.010559598 7:0.012795289 8:0.0091160238 9:0.008381024 10:0.010633197 11:0.0018924964 12:0.0020831001 13:0.0021764128 # met
0.070000000000000006661338147750939 1:0 2:0.010146442 3:0.0084502306 4:0.011594978 5:0.010549031 6:0.0094032232 7:0.011676846 8:0.0078631165 9:0.0074632233 10:0.0097037433 11:0.0018393593 12:0.0020586927 13:0.0019927789 # held
0.070000000000000006661338147750939 1:0 2:0.009208221 3:0.0077254898 4:0.010197474 5:0.0092083914 6:0.0084518678 7:0.010245749 8:0.0068638208 9:0.0067081442 10:0.0085144658 11:0.0018442061 12:0.0020553484 13:0.0020512112 # went to
0.070000000000000006661338147750939 1:0 2:0.012285258 3:0.0096487021 4:0.012344694 5:0.012229911 6:0.010480154 7:0.012430226 8:0.0091160238 9:0.0083179697 10:0.01032982 11:0.0017747723 12:0.0020679617 13:0.0025378694 # achieved
-0.090000000000000010547118733938987 1:0 2:0.015145456 3:0.014253891 4:0.014703278 5:0.014727308 6:0.014359016 7:0.014712194 8:0.010977552 9:0.011396576 10:0.012226191 11:0.0018854479 12:0.0021713981 13:0.0033891439 # climbed to
-0.090000000000000010547118733938987 1:0 2:0.0076211947 3:0.006133121 4:0.010398521 5:0.0074166893 6:0.0067562433 7:0.010092511 8:0.005528308 9:0.0053623477 10:0.0083871214 11:0.0018229571 12:0.0020089154 13:0.0015240196 # made
-0.11999999999999999555910790149937 1:0.0025273012 2:0.013870815 3:0.012478815 4:0.01435341 5:0.012229911 6:0.011782782 7:0.013420778 8:0.0091160238 9:0.0093518505 10:0.011152994 11:0.0019296211 12:0.0021048924 13:0.0027711282 # topped
-0.14999999999999999444888487687422 1:0 2:0.012114872 3:0.0092486786 4:0.012192421 5:0.012229911 6:0.010270907 7:0.012373589 8:0.0091160238 9:0.0081518935 10:0.010282754 11:0.0018321809 12:0.0020381787 13:0.0023802803 # gained
-0.14999999999999999444888487687422 1:0 2:0.0094912685 3:0.0087345205 4:0.010849983 5:0.0087241819 6:0.0084958542 7:0.010288158 8:0.006502897 9:0.0067430558 10:0.0085497098 11:0.0017965625 12:0.0020416074 13:0.0021988915 # came to
-0.18000000000000002109423746787797 1:0 2:0.0078691505 3:0.010018409 4:0.01172736 5:0.0089263767 6:0.011112806 7:0.012234067 8:0.0066536102 9:0.0088200988 10:0.010166807 11:0.0018984549 12:0.0020927195 13:0.0026601001 # got to
-0.20000000000000001110223024625157 1:0 2:0.0083956309 3:0.0073525063 4:0.010989476 5:0.0085855871 6:0.0087670367 7:0.011325714 8:0.0063995905 9:0.0069582905 10:0.0094119441 11:0.0017921543 12:0.0020292366 13:0.0020906741 # hit
0.050000000000000002775557561562891 1:0 2:0.013452355 3:0.01231459 4:0.010208968 5:0.01152355 6:0.011325238 7:0.0099078156 8:0.0085895117 9:0.0089887036 10:0.0082336357 11:0.0031382383 12:0.0024342199 13:0.003135649 # expectation
0.050000000000000002775557561562891 1:0 2:0.011259103 3:0.0095517458 4:0.0079830745 5:0.010760097 6:0.0098371273 7:0.0085631246 8:0.0080204429 9:0.0078076078 10:0.0071161655 11:0.0030993489 12:0.002419261 13:0.0030066774 # answering
0.050000000000000002775557561562891 1:0 2:0.0079074735 3:0.007467729 4:0.0071086818 5:0.0098742042 6:0.0090053622 7:0.0084076505 8:0.0073601091 9:0.0071474463 10:0.0069869622 11:0.0031073382 12:0.0023553292 13:0.0022718767 # looking
0.050000000000000002775557561562891 1:0 2:0.025309814 3:0.019235784 4:0.015300141 5:0.020309506 6:0.017428724 7:0.014764118 8:0.015138453 9:0.013832966 10:0.012269341 11:0.0034975128 12:0.0026318682 13:0.0052349051 # because of the weather system
0.050000000000000002775557561562891 1:0 2:0.014706404 3:0.012672545 4:0.010468441 5:0.012567725 6:0.011787602 7:0.010271298 8:0.0093678264 9:0.0093556754 10:0.0085356981 11:0.0031381329 12:0.002435622 13:0.0034455666 # acknowledgement
0.050000000000000002775557561562891 1:0 2:0.012346723 3:0.010143801 4:0.0086354194 5:0.011329506 6:0.010302687 7:0.0091039464 8:0.0084448727 9:0.0081771165 10:0.0075656008 11:0.0077927411 12:0.0061941012 13:0.05398972 # reactiion
0.050000000000000002775557561562891 1:0 2:0.013348795 3:0.0092868097 4:0.0072186352 5:0.011522808 6:0.009186158 7:0.0076029915 8:0.0085889585 9:0.0072909417 10:0.0063182712 11:0.0030233902 12:0.0022870051 13:0.0029176967 # a reaction
0.050000000000000002775557561562891 1:0 2:0.00933237 3:0.0069160769 4:0.0056269825 5:0.0076431539 6:0.0083063645 7:0.0070107025 8:0.0056971121 9:0.0065926602 10:0.0058260644 11:0.003068279 12:0.0022434387 13:0.0022064934 # return
-0.050000000000000002775557561562891 1:0 2:0.011261643 3:0.0089814337 4:0.0078376532 5:0.010097893 6:0.0088632302 7:0.0080074295 8:0.0075268438 9:0.0070346375 10:0.0066543682 11:0.0031214706 12:0.0023031957 13:0.003135649 # an answer
-0.050000000000000002775557561562891 1:0 2:0.012245896 3:0.00832354 4:0.0067926529 5:0.0095421979 6:0.0075949365 7:0.0064809769 8:0.0071126362 9:0.0060280082 10:0.0053858496 11:0.0029700252 12:0.0022572591 13:0.003035424 # regards
-0.080000000000000001665334536937735 1:0 2:0.011110995 3:0.0082290154 4:0.0064766249 5:0.011037952 6:0.0086755622 7:0.0072209854 8:0.0082275532 9:0.0068856883 10:0.0060008145 11:0.0029738697 12:0.0022227156 13:0.0023834193 # reaction
-0.10000000000000000555111512312578 1:0 2:0.0088294381 3:0.007278122 4:0.0063027469 5:0.010100669 6:0.0077057132 7:0.0072960169 8:0.0075289137 9:0.0061159306 10:0.0060631675 11:0.0030118648 12:0.0023166279 13:0.0024502424 # answer
-0.11999999999999999555910790149937 1:0 2:0.012377113 3:0.0092127267 4:0.0083054258 5:0.0106894 6:0.0089743268 7:0.0083298599 8:0.0079677459 9:0.0071228137 10:0.0069223158 11:0.0030214565 12:0.0022541627 13:0.0028580851 # reply
0.050000000000000002775557561562891 1:0 2:0.013452355 3:0.01231459 4:0.010208968 5:0.01152355 6:0.011325238 7:0.0099078156 8:0.0085895117 9:0.0089887036 10:0.0082336357 11:0.0031382383 12:0.0024342199 13:0.003135649 # expectation
0.050000000000000002775557561562891 1:0 2:0.011259103 3:0.0095517458 4:0.0079830745 5:0.010760097 6:0.0098371273 7:0.0085631246 8:0.0080204429 9:0.0078076078 10:0.0071161655 11:0.0030993489 12:0.002419261 13:0.0030066774 # answering
0.050000000000000002775557561562891 1:0 2:0.0079074735 3:0.007467729 4:0.0071086818 5:0.0098742042 6:0.0090053622 7:0.0084076505 8:0.0073601091 9:0.0071474463 10:0.0069869622 11:0.0031073382 12:0.0023553292 13:0.0022718767 # looking
0.050000000000000002775557561562891 1:0 2:0.025309814 3:0.019235784 4:0.015300141 5:0.020309506 6:0.017428724 7:0.014764118 8:0.015138453 9:0.013832966 10:0.012269341 11:0.0034975128 12:0.0026318682 13:0.0052349051 # because of the weather system
0.050000000000000002775557561562891 1:0 2:0.014706404 3:0.012672545 4:0.010468441 5:0.012567725 6:0.011787602 7:0.010271298 8:0.0093678264 9:0.0093556754 10:0.0085356981 11:0.0031381329 12:0.002435622 13:0.0034455666 # acknowledgement
0.050000000000000002775557561562891 1:0 2:0.012346723 3:0.010143801 4:0.0086354194 5:0.011329506 6:0.010302687 7:0.0091039464 8:0.0084448727 9:0.0081771165 10:0.0075656008 11:0.0077927411 12:0.0061941012 13:0.05398972 # reactiion
0.050000000000000002775557561562891 1:0 2:0.013348795 3:0.0092868097 4:0.0072186352 5:0.011522808 6:0.009186158 7:0.0076029915 8:0.0085889585 9:0.0072909417 10:0.0063182712 11:0.0030233902 12:0.0022870051 13:0.0029176967 # a reaction
0.050000000000000002775557561562891 1:0 2:0.00933237 3:0.0069160769 4:0.0056269825 5:0.0076431539 6:0.0083063645 7:0.0070107025 8:0.0056971121 9:0.0065926602 10:0.0058260644 11:0.003068279 12:0.0022434387 13:0.0022064934 # return
-0.050000000000000002775557561562891 1:0 2:0.011261643 3:0.0089814337 4:0.0078376532 5:0.010097893 6:0.0088632302 7:0.0080074295 8:0.0075268438 9:0.0070346375 10:0.0066543682 11:0.0031214706 12:0.0023031957 13:0.003135649 # an answer
-0.050000000000000002775557561562891 1:0 2:0.012245896 3:0.00832354 4:0.0067926529 5:0.0095421979 6:0.0075949365 7:0.0064809769 8:0.0071126362 9:0.0060280082 10:0.0053858496 11:0.0029700252 12:0.0022572591 13:0.003035424 # regards
-0.080000000000000001665334536937735 1:0 2:0.011110995 3:0.0082290154 4:0.0064766249 5:0.011037952 6:0.0086755622 7:0.0072209854 8:0.0082275532 9:0.0068856883 10:0.0060008145 11:0.0029738697 12:0.0022227156 13:0.0023834193 # reaction
-0.10000000000000000555111512312578 1:0 2:0.0088294381 3:0.007278122 4:0.0063027469 5:0.010100669 6:0.0077057132 7:0.0072960169 8:0.0075289137 9:0.0061159306 10:0.0060631675 11:0.0030118648 12:0.0023166279 13:0.0024502424 # answer
-0.11999999999999999555910790149937 1:0 2:0.012377113 3:0.0092127267 4:0.0083054258 5:0.0106894 6:0.0089743268 7:0.0083298599 8:0.0079677459 9:0.0071228137 10:0.0069223158 11:0.0030214565 12:0.0022541627 13:0.0028580851 # reply
0.040000000000000000832667268468867 1:0 2:0.014848814 3:0.015088896 4:0.014012627 5:0.012656036 6:0.013533158 7:0.013047799 8:0.013896114 9:0.014337537 10:0.013803343 11:0.022242956 12:0.014782642 13:0.0033932452 # raged
0.040000000000000000832667268468867 1:0 2:0.015015747 3:0.014020098 4:0.013237882 5:0.012137218 6:0.012290412 7:0.012070826 8:0.013509394 9:0.013351182 10:0.012991454 11:0.022203784 12:0.014792205 13:0.0032830413 # still lived
0.040000000000000000832667268468867 1:0 2:0.01756906 3:0.014914909 4:0.014876632 5:0.013150969 6:0.012509862 7:0.013018951 8:0.01426503 9:0.013525357 10:0.013779368 11:0.022192389 12:0.014766547 13:0.0040423386 # stayed one
0.040000000000000000832667268468867 1:0.00088152394 2:0.011765952 3:0.014020431 4:0.013238125 5:0.011502134 6:0.013329864 7:0.012887983 8:0.013036009 9:0.014176184 10:0.013670531 11:0.02218291 12:0.014744626 13:0.0023765687 # existed
0.040000000000000000832667268468867 1:0 2:0.011881704 3:0.013428704 4:0.012809197 5:0.0092420634 6:0.011168817 7:0.011189095 8:0.01135138 9:0.012460988 10:0.012258714 11:0.022102924 12:0.014696943 13:0.0021089588 # continued
-0.020000000000000000416333634234434 1:0 2:0.012341641 3:0.013548239 4:0.012895844 5:0.0099723609 6:0.011561695 7:0.011497954 8:0.011895735 9:0.012772811 10:0.012515383 11:0.02210818 12:0.01470116 13:0.0022864598 # remained
-0.040000000000000000832667268468867 1:0 2:0.01328542 3:0.015619107 4:0.014499364 5:0.010100065 6:0.012606891 7:0.012399839 8:0.011990924 9:0.013602369 10:0.01326487 11:0.022230959 12:0.014803476 13:0.0033891443 # kept going
-0.059999999999999997779553950749687 1:0.013663621 2:0.0097108092 3:0.010449924 4:0.010649955 5:0.0082689989 6:0.009489187 7:0.0098686703 8:0.010626071 9:0.011127885 10:0.011161409 11:0.022021307 12:0.01468016 13:0.0019646713 # lived
-0.080000000000000001665334536937735 1:0.0022038098 2:0.012024241 3:0.012052957 4:0.011811952 5:0.010910691 6:0.011340314 7:0.011323915 8:0.012595155 9:0.012597103 10:0.012370754 11:0.022050351 12:0.014733436 13:0.0023681289 # lasted
0.040000000000000000832667268468867 1:0 2:0.014848814 3:0.015088896 4:0.014012627 5:0.012656036 6:0.013533158 7:0.013047799 8:0.013896114 9:0.014337537 10:0.013803343 11:0.022242956 12:0.014782642 13:0.0033932452 # raged
0.040000000000000000832667268468867 1:0 2:0.015015747 3:0.014020098 4:0.013237882 5:0.012137218 6:0.012290412 7:0.012070826 8:0.013509394 9:0.013351182 10:0.012991454 11:0.022203784 12:0.014792205 13:0.0032830413 # still lived
0.040000000000000000832667268468867 1:0 2:0.01756906 3:0.014914909 4:0.014876632 5:0.013150969 6:0.012509862 7:0.013018951 8:0.01426503 9:0.013525357 10:0.013779368 11:0.022192389 12:0.014766547 13:0.0040423386 # stayed one
0.040000000000000000832667268468867 1:0.00088152394 2:0.011765952 3:0.014020431 4:0.013238125 5:0.011502134 6:0.013329864 7:0.012887983 8:0.013036009 9:0.014176184 10:0.013670531 11:0.02218291 12:0.014744626 13:0.0023765687 # existed
0.040000000000000000832667268468867 1:0 2:0.011881704 3:0.013428704 4:0.012809197 5:0.0092420634 6:0.011168817 7:0.011189095 8:0.01135138 9:0.012460988 10:0.012258714 11:0.022102924 12:0.014696943 13:0.0021089588 # continued
-0.020000000000000000416333634234434 1:0 2:0.012341641 3:0.013548239 4:0.012895844 5:0.0099723609 6:0.011561695 7:0.011497954 8:0.011895735 9:0.012772811 10:0.012515383 11:0.02210818 12:0.01470116 13:0.0022864598 # remained
-0.040000000000000000832667268468867 1:0 2:0.01328542 3:0.015619107 4:0.014499364 5:0.010100065 6:0.012606891 7:0.012399839 8:0.011990924 9:0.013602369 10:0.01326487 11:0.022230959 12:0.014803476 13:0.0033891443 # kept going
-0.059999999999999997779553950749687 1:0.013663621 2:0.0097108092 3:0.010449924 4:0.010649955 5:0.0082689989 6:0.009489187 7:0.0098686703 8:0.010626071 9:0.011127885 10:0.011161409 11:0.022021307 12:0.01468016 13:0.0019646713 # lived
-0.080000000000000001665334536937735 1:0.0022038098 2:0.012024241 3:0.012052957 4:0.011811952 5:0.010910691 6:0.011340314 7:0.011323915 8:0.012595155 9:0.012597103 10:0.012370754 11:0.022050351 12:0.014733436 13:0.0023681289 # lasted
0.080000000000000001665334536937735 1:0 2:0.010302057 3:0.0090585491 4:0.0088444604 5:0.013372729 6:0.011846394 7:0.011097504 8:0.010986145 9:0.010223001 10:0.0098978002 11:0.03845742 12:0.032515798 13:0.002397082 # thought of
0.080000000000000001665334536937735 1:0.00014581598 2:0.013265182 3:0.011376071 4:0.010643319 5:0.010457959 6:0.010162059 7:0.0098665543 8:0.0081501575 9:0.0081435656 10:0.0082636019 11:0.038410351 12:0.032530405 13:0.0024527772 # regarded
0.080000000000000001665334536937735 1:0.0048119277 2:0.0081348596 3:0.006835727 4:0.0075787967 5:0.013801745 6:0.011579155 7:0.011158141 8:0.011305928 9:0.010010896 10:0.0099481922 11:0.038507335 12:0.032585368 13:0.0014853716 # called
0.080000000000000001665334536937735 1:0 2:0.013464575 3:0.0099037327 4:0.0088178171 5:0.013451003 6:0.011037033 7:0.0099604428 8:0.011044489 9:0.0095806206 10:0.0089528766 11:0.038365547 12:0.03251183 13:0.002553002 # believed to be
0.080000000000000001665334536937735 1:0 2:0.013989907 3:0.010084678 4:0.0096509717 5:0.010684468 6:0.0088280858 7:0.0087738009 8:0.0085170846 9:0.0074524358 10:0.0076581007 11:0.038334578 12:0.032460697 13:0.0025282977 # regarded as
0.080000000000000001665334536937735 1:0 2:0.010912504 3:0.0092127267 4:0.0078172367 5:0.015518093 6:0.013296052 7:0.011344922 8:0.012585273 9:0.011373576 10:0.010103411 11:0.038596932 12:0.032694716 13:0.0022915299 # chosen
0.080000000000000001665334536937735 1:0.0017497918 2:0.009097334 3:0.0086157722 4:0.0087467898 5:0.0093586026 6:0.0091286693 7:0.0091358991 8:0.0079940651 9:0.0080659753 10:0.0082676597 11:0.038462479 12:0.0325564 13:0.0016149296 # known
0.080000000000000001665334536937735 1:0 2:0.013235595 3:0.010449924 4:0.0099719791 5:0.016953565 6:0.014189674 7:0.013032825 8:0.013655256 9:0.012082833 10:0.011506099 11:0.03864783 12:0.032681961 13:0.0026293052 # crowned
0.080000000000000001665334536937735 1:0 2:0.013731807 3:0.010755439 4:0.010323912 5:0.017260183 6:0.014410346 7:0.013308509 8:0.013883804 9:0.012257977 10:0.011735199 11:0.038441144 12:0.032581903 13:0.0026441973 # viewed
0.080000000000000001665334536937735 1:0 2:0.012936908 3:0.0092868097 4:0.0092238775 5:0.016769001 6:0.013349562 7:0.012446804 8:0.013517684 9:0.011416045 10:0.011019101 11:0.038494755 12:0.032693256 13:0.0029369793 # reviewed
0.080000000000000001665334536937735 1:0 2:0.012547816 3:0.0099584609 4:0.0096552977 5:0.016528577 6:0.013834692 7:0.012784755 8:0.013338475 9:0.011801088 10:0.011299946 11:0.038459491 12:0.032554183 13:0.0027490803 # admired
0.080000000000000001665334536937735 1:0 2:0.013489483 3:0.010958776 4:0.010340832 5:0.017110446 6:0.014557215 7:0.013321766 8:0.013772193 9:0.012374545 10:0.011746216 11:0.038518034 12:0.032705411 13:0.0028998801 # deemed
0.080000000000000001665334536937735 1:0 2:0.010356158 3:0.010158763 4:0.0098227365 5:0.011502134 6:0.011199946 7:0.0107309 8:0.0095918262 9:0.0097099226 10:0.0095931441 11:0.038535375 12:0.032578122 13:0.0023011197 # agreed
-0.070000000000000006661338147750939 1:0.0010207118 2:0.010310628 3:0.0089127496 4:0.0089247543 5:0.011502134 6:0.010321251 7:0.010044212 8:0.0095918262 9:0.0090125129 10:0.0090224883 11:0.038422629 12:0.032508712 13:0.0021212334 # believed
-0.070000000000000006661338147750939 1:0 2:0.013382105 3:0.01001841 4:0.0084453141 5:0.017044095 6:0.013877994 7:0.011836924 8:0.013722736 9:0.011835457 10:0.010512276 11:0.038488597 12:0.032584898 13:0.0023866007 # said to be
-0.10999999999999998667732370449812 1:0 2:0.013889677 3:0.010784263 4:0.010111216 5:0.015166796 6:0.012772878 7:0.011838248 8:0.01232342 9:0.010958338 10:0.010513376 11:0.038390405 12:0.032539971 13:0.0023319845 # seen as
-0.10999999999999998667732370449812 1:0 2:0.010302057 3:0.0090585491 4:0.0088444604 5:0.013372729 6:0.011846394 7:0.011097504 8:0.010986145 9:0.010223001 10:0.0098978002 11:0.03845742 12:0.032515798 13:0.002397082 # thought of
-0.14000000000000001332267629550188 1:0 2:0.014663224 3:0.011059391 4:0.010705836 5:0.016067559 6:0.013291595 7:0.0125556 8:0.012994837 9:0.011370039 10:0.011109514 11:0.038468853 12:0.032519933 13:0.0025294728 # thought of as
-0.17000000000000001221245327087672 1:0 2:0.011010613 3:0.0079619121 4:0.0083698025 5:0.010642426 6:0.0086563881 7:0.0088405879 8:0.0089510102 9:0.0076911314 10:0.0080222487 11:0.038374804 12:0.032470066 13:0.0017750121 # known as
-0.17000000000000001221245327087672 1:0.018372815 2:0.0072747865 3:0.0072174398 4:0.007765118 5:0.011502134 6:0.01051657 7:0.010252007 8:0.0095918262 9:0.0091675352 10:0.0091951732 11:0.038458928 12:0.032526519 13:0.0019060152 # thought
-0.20000000000000001110223024625157 1:0 2:0.014201404 3:0.010465674 4:0.0092804143 5:0.015782192 6:0.012862756 7:0.011439005 8:0.012782129 9:0.011029674 10:0.010181597 11:0.038396779 12:0.032500058 13:0.0023651866 # thought to be
0.080000000000000001665334536937735 1:0 2:0.010302057 3:0.0090585491 4:0.0088444604 5:0.013372729 6:0.011846394 7:0.011097504 8:0.010986145 9:0.010223001 10:0.0098978002 11:0.03845742 12:0.032515798 13:0.002397082 # thought of
0.080000000000000001665334536937735 1:0.00014581598 2:0.013265182 3:0.011376071 4:0.010643319 5:0.010457959 6:0.010162059 7:0.0098665543 8:0.0081501575 9:0.0081435656 10:0.0082636019 11:0.038410351 12:0.032530405 13:0.0024527772 # regarded
0.080000000000000001665334536937735 1:0.0048119277 2:0.0081348596 3:0.006835727 4:0.0075787967 5:0.013801745 6:0.011579155 7:0.011158141 8:0.011305928 9:0.010010896 10:0.0099481922 11:0.038507335 12:0.032585368 13:0.0014853716 # called
0.080000000000000001665334536937735 1:0 2:0.013464575 3:0.0099037327 4:0.0088178171 5:0.013451003 6:0.011037033 7:0.0099604428 8:0.011044489 9:0.0095806206 10:0.0089528766 11:0.038365547 12:0.03251183 13:0.002553002 # believed to be
0.080000000000000001665334536937735 1:0 2:0.013989907 3:0.010084678 4:0.0096509717 5:0.010684468 6:0.0088280858 7:0.0087738009 8:0.0085170846 9:0.0074524358 10:0.0076581007 11:0.038334578 12:0.032460697 13:0.0025282977 # regarded as
0.080000000000000001665334536937735 1:0 2:0.010912504 3:0.0092127267 4:0.0078172367 5:0.015518093 6:0.013296052 7:0.011344922 8:0.012585273 9:0.011373576 10:0.010103411 11:0.038596932 12:0.032694716 13:0.0022915299 # chosen
0.080000000000000001665334536937735 1:0.0017497918 2:0.009097334 3:0.0086157722 4:0.0087467898 5:0.0093586026 6:0.0091286693 7:0.0091358991 8:0.0079940651 9:0.0080659753 10:0.0082676597 11:0.038462479 12:0.0325564 13:0.0016149296 # known
0.080000000000000001665334536937735 1:0 2:0.013235595 3:0.010449924 4:0.0099719791 5:0.016953565 6:0.014189674 7:0.013032825 8:0.013655256 9:0.012082833 10:0.011506099 11:0.03864783 12:0.032681961 13:0.0026293052 # crowned
0.080000000000000001665334536937735 1:0 2:0.013731807 3:0.010755439 4:0.010323912 5:0.017260183 6:0.014410346 7:0.013308509 8:0.013883804 9:0.012257977 10:0.011735199 11:0.038441144 12:0.032581903 13:0.0026441973 # viewed
0.080000000000000001665334536937735 1:0 2:0.012936908 3:0.0092868097 4:0.0092238775 5:0.016769001 6:0.013349562 7:0.012446804 8:0.013517684 9:0.011416045 10:0.011019101 11:0.038494755 12:0.032693256 13:0.0029369793 # reviewed
0.080000000000000001665334536937735 1:0 2:0.012547816 3:0.0099584609 4:0.0096552977 5:0.016528577 6:0.013834692 7:0.012784755 8:0.013338475 9:0.011801088 10:0.011299946 11:0.038459491 12:0.032554183 13:0.0027490803 # admired
0.080000000000000001665334536937735 1:0 2:0.013489483 3:0.010958776 4:0.010340832 5:0.017110446 6:0.014557215 7:0.013321766 8:0.013772193 9:0.012374545 10:0.011746216 11:0.038518034 12:0.032705411 13:0.0028998801 # deemed
0.080000000000000001665334536937735 1:0 2:0.010356158 3:0.010158763 4:0.0098227365 5:0.011502134 6:0.011199946 7:0.0107309 8:0.0095918262 9:0.0097099226 10:0.0095931441 11:0.038535375 12:0.032578122 13:0.0023011197 # agreed
-0.070000000000000006661338147750939 1:0.0010207118 2:0.010310628 3:0.0089127496 4:0.0089247543 5:0.011502134 6:0.010321251 7:0.010044212 8:0.0095918262 9:0.0090125129 10:0.0090224883 11:0.038422629 12:0.032508712 13:0.0021212334 # believed
-0.070000000000000006661338147750939 1:0 2:0.013382105 3:0.01001841 4:0.0084453141 5:0.017044095 6:0.013877994 7:0.011836924 8:0.013722736 9:0.011835457 10:0.010512276 11:0.038488597 12:0.032584898 13:0.0023866007 # said to be
-0.10999999999999998667732370449812 1:0 2:0.013889677 3:0.010784263 4:0.010111216 5:0.015166796 6:0.012772878 7:0.011838248 8:0.01232342 9:0.010958338 10:0.010513376 11:0.038390405 12:0.032539971 13:0.0023319845 # seen as
-0.10999999999999998667732370449812 1:0 2:0.010302057 3:0.0090585491 4:0.0088444604 5:0.013372729 6:0.011846394 7:0.011097504 8:0.010986145 9:0.010223001 10:0.0098978002 11:0.03845742 12:0.032515798 13:0.002397082 # thought of
-0.14000000000000001332267629550188 1:0 2:0.014663224 3:0.011059391 4:0.010705836 5:0.016067559 6:0.013291595 7:0.0125556 8:0.012994837 9:0.011370039 10:0.011109514 11:0.038468853 12:0.032519933 13:0.0025294728 # thought of as
-0.17000000000000001221245327087672 1:0 2:0.011010613 3:0.0079619121 4:0.0083698025 5:0.010642426 6:0.0086563881 7:0.0088405879 8:0.0089510102 9:0.0076911314 10:0.0080222487 11:0.038374804 12:0.032470066 13:0.0017750121 # known as
-0.17000000000000001221245327087672 1:0.018372815 2:0.0072747865 3:0.0072174398 4:0.007765118 5:0.011502134 6:0.01051657 7:0.010252007 8:0.0095918262 9:0.0091675352 10:0.0091951732 11:0.038458928 12:0.032526519 13:0.0019060152 # thought
-0.20000000000000001110223024625157 1:0 2:0.014201404 3:0.010465674 4:0.0092804143 5:0.015782192 6:0.012862756 7:0.011439005 8:0.012782129 9:0.011029674 10:0.010181597 11:0.038396779 12:0.032500058 13:0.0023651866 # thought to be
0.090000000000000010547118733938987 1:0 2:0.015217448 3:0.013196686 4:0.012631597 5:0.0098437294 6:0.0098340614 7:0.010132414 8:0.012702339 9:0.012128948 10:0.011979275 11:0.017287189 12:0.014507081 13:0.0034455666 # renovate
0.090000000000000010547118733938987 1:0 2:0.013178995 3:0.009722787 4:0.010803197 5:0.0088623995 6:0.0075593079 7:0.0084548946 8:0.011970868 9:0.010323505 10:0.010585217 11:0.017368918 12:0.018513072 13:0.055372749 # freshen up
0.090000000000000010547118733938987 1:0 2:0.012270759 3:0.011524717 4:0.01141963 5:0.0089011397 6:0.0094661592 7:0.0098431921 8:0.011999745 9:0.011836948 10:0.011738923 11:0.017332245 12:0.014497897 13:0.002814539 # update
0.090000000000000010547118733938987 1:0 2:0.013870815 3:0.010958777 4:0.011009394 5:0.0093171913 6:0.007954671 7:0.0086549493 8:0.012309865 9:0.010637299 10:0.010751467 11:0.017275363 12:0.014508658 13:0.0034455666 # furnish
0.090000000000000010547118733938987 1:0 2:0.018198924 3:0.0135159 4:0.012923557 5:0.011972755 6:0.010313011 7:0.010556382 8:0.01428929 9:0.012509085 10:0.012331605 11:0.017369175 12:0.014563954 13:0.0046789427 # change the design of
0.090000000000000010547118733938987 1:0 2:0.013235595 3:0.012007327 4:0.011769461 5:0.011948509 6:0.011526326 7:0.011462772 8:0.014271216 9:0.013472077 10:0.013084834 11:0.017439263 12:0.014589756 13:0.0033504956 # makeover
0.090000000000000010547118733938987 1:0 2:0.021881947 3:0.016581412 4:0.015085098 5:0.014248551 6:0.012527216 7:0.012249612 8:0.01598564 9:0.014266472 10:0.013738719 11:0.017563291 12:0.014700538 13:0.0058534252 # change the decorations
-0.029999999999999998889776975374843 1:0 2:0.013327206 3:0.010018409 4:0.010187851 5:0.0091445139 6:0.0079634767 7:0.0085522877 8:0.012181154 9:0.010644289 10:0.010666153 11:0.017391559 12:0.014515312 13:0.0037340347 # fix up
-0.029999999999999998889776975374843 1:0 2:0.020662075 3:0.014977057 4:0.014024815 5:0.013494775 6:0.011368399 7:0.011419046 8:0.015423783 9:0.013346733 10:0.013048499 11:0.017373038 12:0.014526107 13:0.0038769655 # change the look of
-0.029999999999999998889776975374843 1:0 2:0.013295701 3:0.012052956 4:0.011802536 5:0.0090105748 6:0.0092507815 7:0.0096738748 8:0.012081317 9:0.011666006 10:0.011598218 11:0.017346421 12:0.01451686 13:0.0032554248 # rearrange
-0.029999999999999998889776975374843 1:0.11636116 2:0.012988238 3:0.010084678 4:0.01056603 5:0.0087436577 6:0.007954671 7:0.0088039795 8:0.01188236 9:0.010637299 10:0.010875314 11:0.017271129 12:0.014443705 13:0.0029176967 # decorate
-0.029999999999999998889776975374843 1:0 2:0.013568289 3:0.012052957 4:0.011802537 5:0.0090606231 6:0.0092846286 7:0.0097004827 8:0.012118622 9:0.011692869 10:0.01162033 11:0.017364942 12:0.014564173 13:0.0028067227 # remake
-0.10000000000000000555111512312578 1:0 2:0.014175497 3:0.012052956 4:0.011802536 5:0.0096945055 6:0.0094340043 7:0.0098179132 8:0.01259111 9:0.011811428 10:0.011717917 11:0.017361473 12:0.018450182 13:0.05398972 # remodel
-0.10000000000000000555111512312578 1:0 2:0.0084614912 3:0.0081934705 4:0.0096071409 5:0.0062035322 6:0.0065631443 7:0.0080393469 8:0.0099889822 9:0.0095328614 10:0.010239886 11:0.017232353 12:0.014405605 13:0.0019715521 # change
-0.13000000000000000444089209850063 1:0 2:0.014507469 3:0.012052956 4:0.011802536 5:0.00997236 6:0.0094746472 7:0.0098498641 8:0.012798219 9:0.011843686 10:0.01174447 11:0.017389938 12:0.014514437 13:0.0031518256 # redesign
-0.14999999999999999444888487687422 1:0 2:0.013440288 3:0.012325096 4:0.011999804 5:0.0088260118 6:0.0092267925 7:0.0096550155 8:0.011943744 9:0.011646966 10:0.011582546 11:0.01735365 12:0.014616852 13:0.0037706171 # redo
0.090000000000000010547118733938987 1:0 2:0.015217448 3:0.013196686 4:0.012631597 5:0.0098437294 6:0.0098340614 7:0.010132414 8:0.012702339 9:0.012128948 10:0.011979275 11:0.017287189 12:0.014507081 13:0.0034455666 # renovate
0.090000000000000010547118733938987 1:0 2:0.013178995 3:0.009722787 4:0.010803197 5:0.0088623995 6:0.0075593079 7:0.0084548946 8:0.011970868 9:0.010323505 10:0.010585217 11:0.017368918 12:0.018513072 13:0.055372749 # freshen up
0.090000000000000010547118733938987 1:0 2:0.012270759 3:0.011524717 4:0.01141963 5:0.0089011397 6:0.0094661592 7:0.0098431921 8:0.011999745 9:0.011836948 10:0.011738923 11:0.017332245 12:0.014497897 13:0.002814539 # update
0.090000000000000010547118733938987 1:0 2:0.013870815 3:0.010958777 4:0.011009394 5:0.0093171913 6:0.007954671 7:0.0086549493 8:0.012309865 9:0.010637299 10:0.010751467 11:0.017275363 12:0.014508658 13:0.0034455666 # furnish
0.090000000000000010547118733938987 1:0 2:0.018198924 3:0.0135159 4:0.012923557 5:0.011972755 6:0.010313011 7:0.010556382 8:0.01428929 9:0.012509085 10:0.012331605 11:0.017369175 12:0.014563954 13:0.0046789427 # change the design of
0.090000000000000010547118733938987 1:0 2:0.013235595 3:0.012007327 4:0.011769461 5:0.011948509 6:0.011526326 7:0.011462772 8:0.014271216 9:0.013472077 10:0.013084834 11:0.017439263 12:0.014589756 13:0.0033504956 # makeover
0.090000000000000010547118733938987 1:0 2:0.021881947 3:0.016581412 4:0.015085098 5:0.014248551 6:0.012527216 7:0.012249612 8:0.01598564 9:0.014266472 10:0.013738719 11:0.017563291 12:0.014700538 13:0.0058534252 # change the decorations
-0.029999999999999998889776975374843 1:0 2:0.013327206 3:0.010018409 4:0.010187851 5:0.0091445139 6:0.0079634767 7:0.0085522877 8:0.012181154 9:0.010644289 10:0.010666153 11:0.017391559 12:0.014515312 13:0.0037340347 # fix up
-0.029999999999999998889776975374843 1:0 2:0.020662075 3:0.014977057 4:0.014024815 5:0.013494775 6:0.011368399 7:0.011419046 8:0.015423783 9:0.013346733 10:0.013048499 11:0.017373038 12:0.014526107 13:0.0038769655 # change the look of
-0.029999999999999998889776975374843 1:0 2:0.013295701 3:0.012052956 4:0.011802536 5:0.0090105748 6:0.0092507815 7:0.0096738748 8:0.012081317 9:0.011666006 10:0.011598218 11:0.017346421 12:0.01451686 13:0.0032554248 # rearrange
-0.029999999999999998889776975374843 1:0.11636116 2:0.012988238 3:0.010084678 4:0.01056603 5:0.0087436577 6:0.007954671 7:0.0088039795 8:0.01188236 9:0.010637299 10:0.010875314 11:0.017271129 12:0.014443705 13:0.0029176967 # decorate
-0.029999999999999998889776975374843 1:0 2:0.013568289 3:0.012052957 4:0.011802537 5:0.0090606231 6:0.0092846286 7:0.0097004827 8:0.012118622 9:0.011692869 10:0.01162033 11:0.017364942 12:0.014564173 13:0.0028067227 # remake
-0.10000000000000000555111512312578 1:0 2:0.014175497 3:0.012052956 4:0.011802536 5:0.0096945055 6:0.0094340043 7:0.0098179132 8:0.01259111 9:0.011811428 10:0.011717917 11:0.017361473 12:0.018450182 13:0.05398972 # remodel
-0.10000000000000000555111512312578 1:0 2:0.0084614912 3:0.0081934705 4:0.0096071409 5:0.0062035322 6:0.0065631443 7:0.0080393469 8:0.0099889822 9:0.0095328614 10:0.010239886 11:0.017232353 12:0.014405605 13:0.0019715521 # change
-0.13000000000000000444089209850063 1:0 2:0.014507469 3:0.012052956 4:0.011802536 5:0.00997236 6:0.0094746472 7:0.0098498641 8:0.012798219 9:0.011843686 10:0.01174447 11:0.017389938 12:0.014514437 13:0.0031518256 # redesign
-0.14999999999999999444888487687422 1:0 2:0.013440288 3:0.012325096 4:0.011999804 5:0.0088260118 6:0.0092267925 7:0.0096550155 8:0.011943744 9:0.011646966 10:0.011582546 11:0.01735365 12:0.014616852 13:0.0037706171 # redo
0.10000000000000000555111512312578 1:0 2:0.014663225 3:0.021085598 4:0.016025409 5:0.010263913 6:0.016140785 7:0.013269377 8:0.012902874 9:0.017043717 10:0.014511429 11:0.004007577 12:0.00347645 13:0.0036080917 # creatively
0.10000000000000000555111512312578 1:0 2:0.016641835 3:0.022067867 4:0.016737431 5:0.012802419 6:0.017846253 7:0.014610116 8:0.014795045 9:0.018397328 10:0.015625615 11:0.0040575834 12:0.0072875456 13:0.05398972 # mystically
0.10000000000000000555111512312578 1:0 2:0.017709015 3:0.022758875 4:0.017238326 5:0.013461847 6:0.018345367 7:0.015002489 8:0.015286572 9:0.018793466 10:0.015951686 11:0.004005963 12:0.0034889679 13:0.0037706171 # anciently
0.10000000000000000555111512312578 1:0 2:0.012346723 3:0.019025292 4:0.014531946 5:0.010856181 6:0.016184321 7:0.013303603 8:0.013344344 9:0.017078271 10:0.014539871 11:0.0040555201 12:0.0034891053 13:0.0037706171 # legendarily
0.10000000000000000555111512312578 1:0 2:0.0063920873 3:0.016090423 4:0.012404534 5:0.0063285944 6:0.013535522 7:0.011221276 8:0.0099695353 9:0.01497595 10:0.012809405 11:0.0038511383 12:0.0033156981 13:0.0012993786 # from
0.10000000000000000555111512312578 1:0 2:0.0092328228 3:0.018048085 4:0.013823593 5:0.0066421335 6:0.013965691 7:0.011559448 8:0.010203243 9:0.01531737 10:0.013090435 11:0.0037986448 12:0.0033380457 13:0.0018630184 # sometimes
0.10000000000000000555111512312578 1:0 2:0.013870815 3:0.022472946 4:0.017031061 5:0.010291418 6:0.01753428 7:0.014364861 8:0.012923375 9:0.018149717 10:0.015421802 11:0.0041440469 12:0.0035655142 13:0.0040423386 # make believe
0.10000000000000000555111512312578 1:0 2:0.016043635 3:0.02348466 4:0.017764429 5:0.012454593 6:0.018886104 7:0.015427585 8:0.014535778 9:0.019222643 10:0.016304951 11:0.0040977886 12:0.0035068854 13:0.0033505161 # from a story
0.10000000000000000555111512312578 1:0 2:0.012208067 3:0.020281417 4:0.015442479 5:0.010263913 6:0.016510095 7:0.013559708 8:0.012902874 9:0.017336834 10:0.014752701 11:0.0040527894 12:0.0034740581 13:0.0029303741 # pretended
0.10000000000000000555111512312578 1:0 2:0.015379721 3:0.022623224 4:0.017139995 5:0.012093676 6:0.018301228 7:0.01496779 8:0.014266756 9:0.018758433 10:0.01592285 11:0.0040799002 12:0.0034844186 13:0.0032307196 # in stories
0.10000000000000000555111512312578 1:0 2:0.014342432 3:0.020957226 4:0.015932357 5:0.011502134 6:0.017135285 7:0.014051194 8:0.013825828 9:0.017833041 10:0.015161139 11:0.0040244758 12:0.0034644795 13:0.0034455666 # divinely
0.10000000000000000555111512312578 1:0 2:0.015955174 3:0.022910733 4:0.017348403 5:0.011688896 6:0.017933387 7:0.014678615 8:0.013294208 9:0.017925842 10:0.015237525 11:0.0040130247 12:0.0035057198 13:0.003781894 # the legend was
0.10000000000000000555111512312578 1:0 2:0.02001781 3:0.025229231 4:0.019029023 5:0.014888486 6:0.020129696 7:0.016405221 8:0.016349971 9:0.020209664 10:0.01711739 11:0.0040498446 12:0.0035340972 13:0.0046183988 # imagined to be
0.10000000000000000555111512312578 1:0 2:0.010268508 3:0.018221779 4:0.0139495 5:0.008064053 6:0.014676249 7:0.012118047 8:0.011263125 9:0.015881332 10:0.013554644 11:0.0039715134 12:0.0034081538 13:0.0027129364 # truly
0.10000000000000000555111512312578 1:0 2:0.010071458 3:0.018233635 4:0.013958094 5:0.007829003 6:0.014667096 7:0.012110852 8:0.011087922 9:0.015874069 10:0.013548667 11:0.0039005666 12:0.0033590933 13:0.0024108784 # possibly
0.10000000000000000555111512312578 1:0 2:0.01905271 3:0.024598276 4:0.01857166 5:0.014239189 6:0.019633882 7:0.016015444 8:0.015865993 9:0.019816145 10:0.016793475 11:0.0041158893 12:0.003530405 13:0.0039364216 # by legend
0.10000000000000000555111512312578 1:0 2:0.011356522 3:0.018961729 4:0.014485871 5:0.0083925594 6:0.015141123 7:0.012483504 8:0.011507991 9:0.016250297 10:0.013858349 11:0.0039323894 12:0.0033681199 13:0.0022091831 # normally
0.10000000000000000555111512312578 1:0 2:0.014582229 3:0.021497065 4:0.016323671 5:0.011529759 6:0.017433966 7:0.014286 8:0.013846419 9:0.018070098 10:0.015356266 11:0.0040162248 12:0.0034508887 13:0.003314351 # religiously
0.10000000000000000555111512312578 1:0 2:0.015472306 3:0.023104496 4:0.017488858 5:0.011020243 6:0.01779308 7:0.014568314 8:0.013466632 9:0.018355124 10:0.015590877 11:0.0040145325 12:0.0034687934 13:0.0034477047 # according to legend
0.10000000000000000555111512312578 1:0 2:0.012346723 3:0.019025292 4:0.014531946 5:0.010856181 6:0.016184321 7:0.013303603 8:0.013344344 9:0.017078271 10:0.014539871 11:0.0085692042 12:0.0072875456 13:0.05398972 # artifically
0.10000000000000000555111512312578 1:0 2:0.013018836 3:0.020664314 4:0.01572003 5:0.010263913 6:0.016605558 7:0.013634755 8:0.012902874 9:0.017412603 10:0.014815067 11:0.0040341178 12:0.003474063 13:0.0035130209 # unreal
0.10000000000000000555111512312578 1:0 2:0.025680298 3:0.029842597 4:0.022373134 5:0.019506073 6:0.024308601 7:0.019690428 8:0.019791866 9:0.023526412 10:0.019847477 11:0.004272155 12:0.0037456374 13:0.0063241227 # legends tell them they
0.10000000000000000555111512312578 1:0 2:0.012274365 3:0.019281358 4:0.01471756 5:0.0096238069 6:0.015578844 7:0.012827614 8:0.012425746 9:0.016597711 10:0.014144312 11:0.0039620781 12:0.0034202728 13:0.0025988994 # legendary
-0.19000000000000000222044604925031 1:0 2:0.012274365 3:0.019281358 4:0.01471756 5:0.0096238069 6:0.015578844 7:0.012827614 8:0.012425746 9:0.016597711 10:0.014144312 11:0.0039620781 12:0.0034202728 13:0.0025988994 # legendary
-0.19000000000000000222044604925031 1:0 2:0.012346723 3:0.019025292 4:0.014531946 5:0.010856181 6:0.016184321 7:0.013303603 8:0.013344344 9:0.017078271 10:0.014539871 11:0.0085692042 12:0.0072875456 13:0.05398972 # legendly
-0.19000000000000000222044604925031 1:0 2:0.013928537 3:0.020414703 4:0.015539094 5:0.0099723609 6:0.015972426 7:0.013137025 8:0.012685554 9:0.016910091 10:0.01440144 11:0.0037414138 12:0.0032717094 13:0.0025294728 # traditionally
-0.19000000000000000222044604925031 1:0 2:0.016924597 3:0.02325611 4:0.017598758 5:0.013048277 6:0.018758357 7:0.015327157 8:0.014978304 9:0.01912125 10:0.016221493 11:0.0040782569 12:0.0035318513 13:0.0040423386 # in legend
-0.19000000000000000222044604925031 1:0.0062897922 2:0.017709015 3:0.022810001 4:0.017275384 5:0.013461847 6:0.018382294 7:0.01503152 8:0.015286572 9:0.018822774 10:0.015975811 11:0.0040309541 12:0.0034890804 13:0.0037706171 # fictionally
-0.19000000000000000222044604925031 1:0 2:0.012346723 3:0.019025292 4:0.014531946 5:0.010856181 6:0.016184321 7:0.013303603 8:0.013344344 9:0.017078271 10:0.014539871 11:0.0040316116 12:0.0072875456 13:0.05398972 # fictitiously
-0.2700000000000000177635683940025 1:0 2:0.013908912 3:0.020617325 4:0.01568597 5:0.0091445139 6:0.015726304 7:0.012943539 8:0.012068488 9:0.016714748 10:0.014240649 11:0.0039561191 12:0.0034017232 13:0.0026461273 # historically
-0.2700000000000000177635683940025 1:0 2:0.012474121 3:0.01937159 4:0.014782968 5:0.0089011397 6:0.015090797 7:0.01244394 8:0.011887078 9:0.016210355 10:0.013825471 11:0.0039366465 12:0.003392651 13:0.0027646143 # supposedly
-0.29999999999999998889776975374843 1:0 2:0.013669115 3:0.020411514 4:0.015536782 5:0.010856181 6:0.016567111 7:0.013604529 8:0.013344344 9:0.017382087 10:0.014789948 11:0.003848766 12:0.003452657 13:0.0030928995 # falsely
